{"learner":{"attributes":{"best_iteration":"399","best_ntree_limit":"400","scikit_learn":"{\"n_estimators\": 400, \"objective\": \"reg:squarederror\", \"max_depth\": 5, \"learning_rate\": 0.01, \"verbosity\": null, \"booster\": null, \"tree_method\": null, \"gamma\": null, \"min_child_weight\": null, \"max_delta_step\": null, \"subsample\": null, \"colsample_bytree\": null, \"colsample_bylevel\": null, \"colsample_bynode\": null, \"reg_alpha\": null, \"reg_lambda\": null, \"scale_pos_weight\": null, \"base_score\": null, \"missing\": NaN, \"num_parallel_tree\": null, \"random_state\": 123, \"n_jobs\": null, \"monotone_constraints\": null, \"interaction_constraints\": null, \"importance_type\": null, \"gpu_id\": null, \"validate_parameters\": null, \"predictor\": null, \"enable_categorical\": false, \"_estimator_type\": \"regressor\"}"},"feature_names":["sqft_living","sqft_lot","waterfront","view","grade","lat","long","summer_high","winter_low","precipitation","violent_crime","age_sold"],"feature_types":["float","float","float","float","float","float","float","float","float","float","float","float"],"gradient_booster":{"model":{"gbtree_model_param":{"num_trees":"400","size_leaf_vector":"0"},"tree_info":[0,0,0,0,0,0,0,0,0,0,0,0,0,0,0,0,0,0,0,0,0,0,0,0,0,0,0,0,0,0,0,0,0,0,0,0,0,0,0,0,0,0,0,0,0,0,0,0,0,0,0,0,0,0,0,0,0,0,0,0,0,0,0,0,0,0,0,0,0,0,0,0,0,0,0,0,0,0,0,0,0,0,0,0,0,0,0,0,0,0,0,0,0,0,0,0,0,0,0,0,0,0,0,0,0,0,0,0,0,0,0,0,0,0,0,0,0,0,0,0,0,0,0,0,0,0,0,0,0,0,0,0,0,0,0,0,0,0,0,0,0,0,0,0,0,0,0,0,0,0,0,0,0,0,0,0,0,0,0,0,0,0,0,0,0,0,0,0,0,0,0,0,0,0,0,0,0,0,0,0,0,0,0,0,0,0,0,0,0,0,0,0,0,0,0,0,0,0,0,0,0,0,0,0,0,0,0,0,0,0,0,0,0,0,0,0,0,0,0,0,0,0,0,0,0,0,0,0,0,0,0,0,0,0,0,0,0,0,0,0,0,0,0,0,0,0,0,0,0,0,0,0,0,0,0,0,0,0,0,0,0,0,0,0,0,0,0,0,0,0,0,0,0,0,0,0,0,0,0,0,0,0,0,0,0,0,0,0,0,0,0,0,0,0,0,0,0,0,0,0,0,0,0,0,0,0,0,0,0,0,0,0,0,0,0,0,0,0,0,0,0,0,0,0,0,0,0,0,0,0,0,0,0,0,0,0,0,0,0,0,0,0,0,0,0,0,0,0,0,0,0,0,0,0,0,0,0,0,0,0,0,0,0,0,0,0,0,0,0,0,0,0,0,0,0,0,0,0,0,0,0,0,0,0,0,0,0,0,0,0,0,0,0,0,0,0,0,0,0,0],"trees":[{"base_weights":[-1.9910167E-1,-2.3348227E-1,-1.266144E-1,-2.649412E-1,-2.1058314E-1,-1.4068629E-1,-1.0975576E-2,-2.8049335E-1,-2.3926249E-1,-2.2635545E-1,-1.7952906E-1,-1.6200916E-1,-1.00366786E-1,-4.7268737E-2,6.6421784E-2,-2.9876524E-1,-2.627138E-1,-2.6788932E-1,-2.2457935E-1,-2.3686661E-1,-2.0619972E-1,-1.842239E-1,-1.0694992E-1,-1.7119056E-1,-1.21015295E-1,-1.15114465E-1,-4.8785727E-2,-7.139569E-2,-3.1354435E-2,1.8398592E-2,1.0487719E-1,-3.002165E-1,-5.6471318E-2,-2.6539987E-1,-1.6288744E-1,-7.47665E-2,-2.6884383E-1,-2.2997525E-1,-1.4403245E-1,-1.0585304E-1,-2.3757543E-1,-2.0828384E-1,-1.2055506E-1,-1.8728052E-1,-1.1051794E-1,-5.9359137E-2,-1.1599734E-1,-1.7767039E-1,-1.23180054E-1,-1.4719552E-1,-1.0312353E-1,-1.29009E-1,-8.0586575E-2,-6.056714E-2,3.974088E-2,-7.258528E-2,-1.6664445E-2,-3.7785318E-2,4.283799E-3,1.0879944E-2,7.686713E-2,8.912035E-2,1.7496371E-1],"categories":[],"categories_nodes":[],"categories_segments":[],"categories_sizes":[],"default_left":[true,true,true,true,true,true,true,true,true,true,true,true,true,true,true,true,true,true,true,true,true,true,true,true,true,true,true,true,true,true,true,false,false,false,false,false,false,false,false,false,false,false,false,false,false,false,false,false,false,false,false,false,false,false,false,false,false,false,false,false,false,false,false],"id":0,"left_children":[1,3,5,7,9,11,13,15,17,19,21,23,25,27,29,31,33,35,37,39,41,43,45,47,49,51,53,55,57,59,61,-1,-1,-1,-1,-1,-1,-1,-1,-1,-1,-1,-1,-1,-1,-1,-1,-1,-1,-1,-1,-1,-1,-1,-1,-1,-1,-1,-1,-1,-1,-1,-1],"loss_changes":[8.730377E0,1.6608734E0,1.8421364E0,3.3224487E-1,6.3724136E-1,8.5206413E-1,3.5145503E-1,1.2195206E-1,1.0124588E-1,1.4479446E-1,1.4078903E-1,2.2731972E-1,2.6215076E-1,3.0398339E-2,7.194045E-2,8.7480545E-2,4.2842865E-2,2.9411316E-3,7.987881E-2,3.0014038E-2,3.218651E-2,7.86562E-2,6.462276E-3,1.4486313E-1,4.2903543E-2,1.2057519E-1,8.584449E-2,9.3895197E-4,1.23086795E-2,7.5161736E-3,8.702695E-3,0E0,0E0,0E0,0E0,0E0,0E0,0E0,0E0,0E0,0E0,0E0,0E0,0E0,0E0,0E0,0E0,0E0,0E0,0E0,0E0,0E0,0E0,0E0,0E0,0E0,0E0,0E0,0E0,0E0,0E0,0E0,0E0],"parents":[2147483647,0,0,1,1,2,2,3,3,4,4,5,5,6,6,7,7,8,8,9,9,10,10,11,11,12,12,13,13,14,14,15,15,16,16,17,17,18,18,19,19,20,20,21,21,22,22,23,23,24,24,25,25,26,26,27,27,28,28,29,29,30,30],"right_children":[2,4,6,8,10,12,14,16,18,20,22,24,26,28,30,32,34,36,38,40,42,44,46,48,50,52,54,56,58,60,62,-1,-1,-1,-1,-1,-1,-1,-1,-1,-1,-1,-1,-1,-1,-1,-1,-1,-1,-1,-1,-1,-1,-1,-1,-1,-1,-1,-1,-1,-1,-1,-1],"split_conditions":[5.08176E-1,3.9937747E-1,5.737494E-1,3.801673E-1,4.1306096E-1,5.814818E-1,6.1111116E-1,3.3834058E-1,2.777778E-1,3.888889E-1,5.841242E-1,4.9879363E-1,6.1111116E-1,5.568849E-1,6.553916E-1,6.9057286E-1,5.8333224E-1,1.8965518E-1,5.7310605E-1,8.8870436E-2,5.9744334E-1,5.665008E-1,2.2844827E-1,4.7257543E-1,3.888889E-1,4.9034905E-1,7.380936E-1,3.75E-1,6.6244507E-1,5E-1,5E-1,-3.002165E-3,-5.6471315E-4,-2.6539988E-3,-1.6288743E-3,-7.47665E-4,-2.6884382E-3,-2.2997526E-3,-1.4403245E-3,-1.0585304E-3,-2.3757543E-3,-2.0828384E-3,-1.2055505E-3,-1.8728052E-3,-1.1051794E-3,-5.9359137E-4,-1.1599733E-3,-1.7767039E-3,-1.2318005E-3,-1.4719551E-3,-1.0312353E-3,-1.2900899E-3,-8.0586574E-4,-6.056714E-4,3.974088E-4,-7.2585273E-4,-1.6664444E-4,-3.7785317E-4,4.2837986E-5,1.0879944E-4,7.6867134E-4,8.9120347E-4,1.7496371E-3],"split_indices":[0,0,5,5,5,0,4,0,4,4,5,5,4,0,0,1,1,11,5,6,1,1,11,1,4,5,0,3,0,2,2,0,0,0,0,0,0,0,0,0,0,0,0,0,0,0,0,0,0,0,0,0,0,0,0,0,0,0,0,0,0,0,0],"split_type":[0,0,0,0,0,0,0,0,0,0,0,0,0,0,0,0,0,0,0,0,0,0,0,0,0,0,0,0,0,0,0,0,0,0,0,0,0,0,0,0,0,0,0,0,0,0,0,0,0,0,0,0,0,0,0,0,0,0,0,0,0,0,0],"sum_hessian":[3.514E3,2.382E3,1.132E3,9.99E2,1.383E3,1.009E3,1.23E2,6.16E2,3.83E2,9.13E2,4.7E2,6.58E2,3.51E2,8.4E1,3.9E1,2.96E2,3.2E2,1.24E2,2.59E2,5.93E2,3.2E2,4.4E2,3E1,5.35E2,1.23E2,2.72E2,7.9E1,3.2E1,5.2E1,1.8E1,2.1E1,2.94E2,2E0,3.1E2,1E1,1E0,1.23E2,2.41E2,1.8E1,4E0,5.89E2,3.11E2,9E0,4.21E2,1.9E1,6E0,2.4E1,4.69E2,6.6E1,4.7E1,7.6E1,1.92E2,8E1,7E1,9E0,3.1E1,1E0,4.4E1,8E0,1.7E1,1E0,1.9E1,2E0],"tree_param":{"num_deleted":"0","num_feature":"12","num_nodes":"63","size_leaf_vector":"0"}},{"base_weights":[-1.9711977E-1,-2.3115857E-1,-1.2535314E-1,-2.623068E-1,-2.0848559E-1,-1.3928716E-1,-1.08473385E-2,-2.7770114E-1,-2.3688856E-1,-2.2409925E-1,-1.7774382E-1,-1.6039744E-1,-9.936967E-2,-4.6810485E-2,6.5845534E-2,-2.957896E-1,-2.601E-1,-2.6523793E-1,-2.2234793E-1,-2.3450373E-1,-2.0414798E-1,-1.8238841E-1,-1.0593699E-1,-1.6948429E-1,-1.1982532E-1,-1.1397101E-1,-4.830047E-2,-7.070877E-2,-3.1047206E-2,1.8260809E-2,1.0394845E-1,-2.972245E-1,-5.6094836E-2,-2.6275444E-1,-1.6140665E-1,-7.439268E-2,-2.6617706E-1,-2.27685E-1,-1.4266793E-1,-1.0500623E-1,-2.352037E-1,-2.062077E-1,-1.1947005E-1,-1.8541215E-1,-1.09468006E-1,-5.8850337E-2,-1.1488377E-1,-1.7589746E-1,-1.2196665E-1,-1.4575422E-1,-1.0210567E-1,-1.277256E-1,-7.9790674E-2,-5.997E-2,3.9383233E-2,-7.189957E-2,-1.6301513E-2,-3.741585E-2,4.245705E-3,1.0777209E-2,7.64828E-2,8.8273704E-2,1.737973E-1],"categories":[],"categories_nodes":[],"categories_segments":[],"categories_sizes":[],"default_left":[true,true,true,true,true,true,true,true,true,true,true,true,true,true,true,true,true,true,true,true,true,true,true,true,true,true,true,true,true,true,true,false,false,false,false,false,false,false,false,false,false,false,false,false,false,false,false,false,false,false,false,false,false,false,false,false,false,false,false,false,false,false,false],"id":1,"left_children":[1,3,5,7,9,11,13,15,17,19,21,23,25,27,29,31,33,35,37,39,41,43,45,47,49,51,53,55,57,59,61,-1,-1,-1,-1,-1,-1,-1,-1,-1,-1,-1,-1,-1,-1,-1,-1,-1,-1,-1,-1,-1,-1,-1,-1,-1,-1,-1,-1,-1,-1,-1,-1],"loss_changes":[8.557648E0,1.6282425E0,1.806221E0,3.2551575E-1,6.244736E-1,8.351593E-1,3.4508872E-1,1.1949921E-1,9.931755E-2,1.4186096E-1,1.3776398E-1,2.2264671E-1,2.5697398E-1,2.9825479E-2,7.06265E-2,8.547783E-2,4.1683197E-2,2.6016235E-3,7.808304E-2,2.9140472E-2,3.135109E-2,7.694054E-2,6.298542E-3,1.4188766E-1,4.20897E-2,1.1815572E-1,8.421999E-2,9.659529E-4,1.2071565E-2,7.4542207E-3,8.745253E-3,0E0,0E0,0E0,0E0,0E0,0E0,0E0,0E0,0E0,0E0,0E0,0E0,0E0,0E0,0E0,0E0,0E0,0E0,0E0,0E0,0E0,0E0,0E0,0E0,0E0,0E0,0E0,0E0,0E0,0E0,0E0,0E0],"parents":[2147483647,0,0,1,1,2,2,3,3,4,4,5,5,6,6,7,7,8,8,9,9,10,10,11,11,12,12,13,13,14,14,15,15,16,16,17,17,18,18,19,19,20,20,21,21,22,22,23,23,24,24,25,25,26,26,27,27,28,28,29,29,30,30],"right_children":[2,4,6,8,10,12,14,16,18,20,22,24,26,28,30,32,34,36,38,40,42,44,46,48,50,52,54,56,58,60,62,-1,-1,-1,-1,-1,-1,-1,-1,-1,-1,-1,-1,-1,-1,-1,-1,-1,-1,-1,-1,-1,-1,-1,-1,-1,-1,-1,-1,-1,-1,-1,-1],"split_conditions":[5.08176E-1,3.9937747E-1,5.737494E-1,3.801673E-1,4.1306096E-1,5.814818E-1,6.1111116E-1,3.3834058E-1,2.777778E-1,3.888889E-1,5.841242E-1,4.9879363E-1,6.1111116E-1,5.568849E-1,6.553916E-1,6.9057286E-1,5.8333224E-1,1.8965518E-1,5.7310605E-1,8.8870436E-2,5.9744334E-1,5.665008E-1,2.2844827E-1,4.7257543E-1,3.888889E-1,4.9034905E-1,7.380936E-1,3.04402E-1,6.6244507E-1,5E-1,5E-1,-2.9722448E-3,-5.6094833E-4,-2.6275443E-3,-1.6140664E-3,-7.4392674E-4,-2.6617704E-3,-2.27685E-3,-1.4266793E-3,-1.0500624E-3,-2.352037E-3,-2.062077E-3,-1.1947005E-3,-1.8541215E-3,-1.09468E-3,-5.885034E-4,-1.1488377E-3,-1.7589746E-3,-1.2196664E-3,-1.4575422E-3,-1.0210567E-3,-1.277256E-3,-7.979067E-4,-5.9969997E-4,3.938323E-4,-7.189957E-4,-1.6301512E-4,-3.741585E-4,4.245705E-5,1.0777209E-4,7.64828E-4,8.8273705E-4,1.737973E-3],"split_indices":[0,0,5,5,5,0,4,0,4,4,5,5,4,0,0,1,1,11,5,6,1,1,11,1,4,5,0,6,0,2,2,0,0,0,0,0,0,0,0,0,0,0,0,0,0,0,0,0,0,0,0,0,0,0,0,0,0,0,0,0,0,0,0],"split_type":[0,0,0,0,0,0,0,0,0,0,0,0,0,0,0,0,0,0,0,0,0,0,0,0,0,0,0,0,0,0,0,0,0,0,0,0,0,0,0,0,0,0,0,0,0,0,0,0,0,0,0,0,0,0,0,0,0,0,0,0,0,0,0],"sum_hessian":[3.514E3,2.382E3,1.132E3,9.99E2,1.383E3,1.009E3,1.23E2,6.16E2,3.83E2,9.13E2,4.7E2,6.58E2,3.51E2,8.4E1,3.9E1,2.96E2,3.2E2,1.24E2,2.59E2,5.93E2,3.2E2,4.4E2,3E1,5.35E2,1.23E2,2.72E2,7.9E1,3.2E1,5.2E1,1.8E1,2.1E1,2.94E2,2E0,3.1E2,1E1,1E0,1.23E2,2.41E2,1.8E1,4E0,5.89E2,3.11E2,9E0,4.21E2,1.9E1,6E0,2.4E1,4.69E2,6.6E1,4.7E1,7.6E1,1.92E2,8E1,7E1,9E0,3.1E1,1E0,4.4E1,8E0,1.7E1,1E0,1.9E1,2E0],"tree_param":{"num_deleted":"0","num_feature":"12","num_nodes":"63","size_leaf_vector":"0"}},{"base_weights":[-1.9515759E-1,-2.28858E-1,-1.2410443E-1,-2.5969863E-1,-2.0640893E-1,-1.3790196E-1,-1.072048E-2,-2.7493674E-1,-2.3453818E-1,-2.2186555E-1,-1.7597632E-1,-1.5880176E-1,-9.838244E-2,-4.6356656E-2,6.527441E-2,-2.928436E-1,-2.575122E-1,-2.626128E-1,-2.2013871E-1,-2.3558392E-1,-2.0687792E-1,-1.8057121E-1,-1.0493365E-1,-1.7316265E-1,-1.3317513E-1,-1.12838894E-1,-4.7820024E-2,-7.002842E-2,-3.0742982E-2,1.8124131E-2,1.0302808E-1,-2.9426232E-1,-5.5720877E-2,-2.6013532E-1,-1.5993932E-1,-7.402071E-2,-2.6353675E-1,-2.2541758E-1,-1.4131635E-1,-9.096486E-2,-2.3600757E-1,-2.0880848E-1,-1.325292E-1,-1.8356243E-1,-1.0842807E-1,-5.8345903E-2,-1.1378088E-1,-1.80636E-1,-1.2721714E-1,-1.4101274E-1,-9.5904335E-2,-1.2645495E-1,-7.9002626E-2,-5.9378736E-2,3.9028805E-2,-7.120305E-2,-1.6220003E-2,-3.7049998E-2,4.2079818E-3,1.067543E-2,7.610038E-2,8.74351E-2,1.7263865E-1],"categories":[],"categories_nodes":[],"categories_segments":[],"categories_sizes":[],"default_left":[true,true,true,true,true,true,true,true,true,true,true,true,true,true,true,true,true,true,true,true,true,true,true,true,true,true,true,true,true,true,true,false,false,false,false,false,false,false,false,false,false,false,false,false,false,false,false,false,false,false,false,false,false,false,false,false,false,false,false,false,false,false,false],"id":2,"left_children":[1,3,5,7,9,11,13,15,17,19,21,23,25,27,29,31,33,35,37,39,41,43,45,47,49,51,53,55,57,59,61,-1,-1,-1,-1,-1,-1,-1,-1,-1,-1,-1,-1,-1,-1,-1,-1,-1,-1,-1,-1,-1,-1,-1,-1,-1,-1,-1,-1,-1,-1,-1,-1],"loss_changes":[8.388336E0,1.5962601E0,1.7710075E0,3.1891632E-1,6.119728E-1,8.1858826E-1,3.3883864E-1,1.1710358E-1,9.742355E-2,1.3918686E-1,1.3480186E-1,2.1946526E-1,2.5189972E-1,2.9263392E-2,6.933656E-2,8.3517075E-2,4.055214E-2,2.2735596E-3,7.632828E-2,7.3280334E-3,3.619957E-2,7.526207E-2,6.1386824E-3,1.2089062E-1,5.6875706E-2,1.1578536E-1,8.262628E-2,9.3086064E-4,1.1839028E-2,7.392703E-3,8.784935E-3,0E0,0E0,0E0,0E0,0E0,0E0,0E0,0E0,0E0,0E0,0E0,0E0,0E0,0E0,0E0,0E0,0E0,0E0,0E0,0E0,0E0,0E0,0E0,0E0,0E0,0E0,0E0,0E0,0E0,0E0,0E0,0E0],"parents":[2147483647,0,0,1,1,2,2,3,3,4,4,5,5,6,6,7,7,8,8,9,9,10,10,11,11,12,12,13,13,14,14,15,15,16,16,17,17,18,18,19,19,20,20,21,21,22,22,23,23,24,24,25,25,26,26,27,27,28,28,29,29,30,30],"right_children":[2,4,6,8,10,12,14,16,18,20,22,24,26,28,30,32,34,36,38,40,42,44,46,48,50,52,54,56,58,60,62,-1,-1,-1,-1,-1,-1,-1,-1,-1,-1,-1,-1,-1,-1,-1,-1,-1,-1,-1,-1,-1,-1,-1,-1,-1,-1,-1,-1,-1,-1,-1,-1],"split_conditions":[5.08176E-1,3.9937747E-1,5.737494E-1,3.801673E-1,4.1306096E-1,5.814818E-1,6.1111116E-1,3.3834058E-1,2.777778E-1,4.5621872E-1,5.841242E-1,4.256876E-1,6.1111116E-1,5.568849E-1,6.553916E-1,6.9057286E-1,5.8333224E-1,1.8965518E-1,5.7310605E-1,8.8455155E-2,6.128032E-1,5.665008E-1,2.2844827E-1,4.6591446E-1,5E-1,4.9034905E-1,7.380936E-1,3.04402E-1,6.6244507E-1,5E-1,5E-1,-2.942623E-3,-5.572088E-4,-2.6013532E-3,-1.5993932E-3,-7.402071E-4,-2.6353674E-3,-2.2541757E-3,-1.4131635E-3,-9.096486E-4,-2.3600757E-3,-2.0880848E-3,-1.3252919E-3,-1.8356242E-3,-1.0842807E-3,-5.8345904E-4,-1.1378088E-3,-1.80636E-3,-1.2721714E-3,-1.4101274E-3,-9.5904333E-4,-1.2645494E-3,-7.900263E-4,-5.9378735E-4,3.9028804E-4,-7.120305E-4,-1.6220003E-4,-3.7049997E-4,4.2079817E-5,1.067543E-4,7.6100376E-4,8.7435095E-4,1.7263865E-3],"split_indices":[0,0,5,5,5,0,4,0,4,0,5,5,4,0,0,1,1,11,5,6,1,1,11,1,4,5,0,6,0,2,2,0,0,0,0,0,0,0,0,0,0,0,0,0,0,0,0,0,0,0,0,0,0,0,0,0,0,0,0,0,0,0,0],"split_type":[0,0,0,0,0,0,0,0,0,0,0,0,0,0,0,0,0,0,0,0,0,0,0,0,0,0,0,0,0,0,0,0,0,0,0,0,0,0,0,0,0,0,0,0,0,0,0,0,0,0,0,0,0,0,0,0,0,0,0,0,0,0,0],"sum_hessian":[3.514E3,2.382E3,1.132E3,9.99E2,1.383E3,1.009E3,1.23E2,6.16E2,3.83E2,9.13E2,4.7E2,6.58E2,3.51E2,8.4E1,3.9E1,2.96E2,3.2E2,1.24E2,2.59E2,4.69E2,4.44E2,4.4E2,3E1,4.18E2,2.4E2,2.72E2,7.9E1,3.2E1,5.2E1,1.8E1,2.1E1,2.94E2,2E0,3.1E2,1E1,1E0,1.23E2,2.41E2,1.8E1,2E0,4.67E2,4.31E2,1.3E1,4.21E2,1.9E1,6E0,2.4E1,3.57E2,6.1E1,1.96E2,4.4E1,1.92E2,8E1,7E1,9E0,3.1E1,1E0,4.4E1,8E0,1.7E1,1E0,1.9E1,2E0],"tree_param":{"num_deleted":"0","num_feature":"12","num_nodes":"63","size_leaf_vector":"0"}},{"base_weights":[-1.9321498E-1,-2.2658035E-1,-1.2286819E-1,-2.5711638E-1,-2.0435303E-1,-1.3653058E-1,-1.0594998E-2,-2.7219984E-1,-2.3221114E-1,-2.1965422E-1,-1.7422642E-1,-1.5722202E-1,-9.740504E-2,-4.5907237E-2,6.470838E-2,-2.8992695E-1,-2.5495017E-1,-2.6001367E-1,-2.1795142E-1,-2.2992715E-1,-1.9996019E-1,-1.7877214E-1,-1.03939824E-1,-1.6615783E-1,-1.1732833E-1,-1.11718036E-1,-4.7344375E-2,-6.935462E-2,-3.0441746E-2,1.7988563E-2,1.02116026E-1,-2.9132968E-1,-5.53494E-2,-2.5754234E-1,-1.5848532E-1,-7.365061E-2,-2.6092264E-1,-2.2317271E-1,-1.3997757E-1,-1.029671E-1,-2.3061338E-1,-2.0197757E-1,-1.1702232E-1,-1.8173116E-1,-1.0739802E-1,-5.7845782E-2,-1.12688564E-1,-1.7245379E-1,-1.1951217E-1,-1.429463E-1,-9.983494E-2,-1.2519696E-1,-7.822235E-2,-5.8793314E-2,3.8677543E-2,-7.0530355E-2,-1.5865609E-2,-3.6687728E-2,4.1705766E-3,1.0574609E-2,7.571986E-2,8.660447E-2,1.7148773E-1],"categories":[],"categories_nodes":[],"categories_segments":[],"categories_sizes":[],"default_left":[true,true,true,true,true,true,true,true,true,true,true,true,true,true,true,true,true,true,true,true,true,true,true,true,true,true,true,true,true,true,true,false,false,false,false,false,false,false,false,false,false,false,false,false,false,false,false,false,false,false,false,false,false,false,false,false,false,false,false,false,false,false,false],"id":3,"left_children":[1,3,5,7,9,11,13,15,17,19,21,23,25,27,29,31,33,35,37,39,41,43,45,47,49,51,53,55,57,59,61,-1,-1,-1,-1,-1,-1,-1,-1,-1,-1,-1,-1,-1,-1,-1,-1,-1,-1,-1,-1,-1,-1,-1,-1,-1,-1,-1,-1,-1,-1,-1,-1],"loss_changes":[8.222382E0,1.5648727E0,1.7364845E0,3.1245422E-1,5.9972E-1,8.023453E-1,3.327028E-1,1.1475372E-1,9.556961E-2,1.389389E-1,1.3190365E-1,2.154274E-1,2.4692512E-1,2.871187E-2,6.807022E-2,8.1604004E-2,3.944969E-2,1.9578934E-3,7.461357E-2,2.80056E-2,3.0072212E-2,7.362175E-2,5.9826374E-3,1.3680172E-1,4.1298985E-2,1.1346245E-1,8.106278E-2,9.563267E-4,1.161097E-2,7.331619E-3,8.821771E-3,0E0,0E0,0E0,0E0,0E0,0E0,0E0,0E0,0E0,0E0,0E0,0E0,0E0,0E0,0E0,0E0,0E0,0E0,0E0,0E0,0E0,0E0,0E0,0E0,0E0,0E0,0E0,0E0,0E0,0E0,0E0,0E0],"parents":[2147483647,0,0,1,1,2,2,3,3,4,4,5,5,6,6,7,7,8,8,9,9,10,10,11,11,12,12,13,13,14,14,15,15,16,16,17,17,18,18,19,19,20,20,21,21,22,22,23,23,24,24,25,25,26,26,27,27,28,28,29,29,30,30],"right_children":[2,4,6,8,10,12,14,16,18,20,22,24,26,28,30,32,34,36,38,40,42,44,46,48,50,52,54,56,58,60,62,-1,-1,-1,-1,-1,-1,-1,-1,-1,-1,-1,-1,-1,-1,-1,-1,-1,-1,-1,-1,-1,-1,-1,-1,-1,-1,-1,-1,-1,-1,-1,-1],"split_conditions":[5.08176E-1,3.9937747E-1,5.737494E-1,3.801673E-1,4.1306096E-1,5.814818E-1,6.1111116E-1,3.3834058E-1,2.777778E-1,3.888889E-1,5.841242E-1,4.9879363E-1,6.1111116E-1,5.568849E-1,6.553916E-1,6.9057286E-1,5.8333224E-1,1.8965518E-1,5.7310605E-1,8.8870436E-2,5.9744334E-1,5.665008E-1,2.2844827E-1,4.7257543E-1,3.888889E-1,4.9034905E-1,7.380936E-1,3.75E-1,6.6244507E-1,5E-1,5E-1,-2.9132967E-3,-5.5349397E-4,-2.5754233E-3,-1.5848532E-3,-7.3650613E-4,-2.6092264E-3,-2.2317271E-3,-1.3997757E-3,-1.0296709E-3,-2.3061337E-3,-2.0197756E-3,-1.1702232E-3,-1.8173116E-3,-1.0739801E-3,-5.7845784E-4,-1.1268856E-3,-1.7245379E-3,-1.1951217E-3,-1.429463E-3,-9.983494E-4,-1.2519696E-3,-7.822235E-4,-5.879331E-4,3.867754E-4,-7.053035E-4,-1.5865608E-4,-3.6687727E-4,4.1705764E-5,1.0574609E-4,7.571986E-4,8.6604466E-4,1.7148773E-3],"split_indices":[0,0,5,5,5,0,4,0,4,4,5,5,4,0,0,1,1,11,5,6,1,1,11,1,4,5,0,3,0,2,2,0,0,0,0,0,0,0,0,0,0,0,0,0,0,0,0,0,0,0,0,0,0,0,0,0,0,0,0,0,0,0,0],"split_type":[0,0,0,0,0,0,0,0,0,0,0,0,0,0,0,0,0,0,0,0,0,0,0,0,0,0,0,0,0,0,0,0,0,0,0,0,0,0,0,0,0,0,0,0,0,0,0,0,0,0,0,0,0,0,0,0,0,0,0,0,0,0,0],"sum_hessian":[3.514E3,2.382E3,1.132E3,9.99E2,1.383E3,1.009E3,1.23E2,6.16E2,3.83E2,9.13E2,4.7E2,6.58E2,3.51E2,8.4E1,3.9E1,2.96E2,3.2E2,1.24E2,2.59E2,5.93E2,3.2E2,4.4E2,3E1,5.35E2,1.23E2,2.72E2,7.9E1,3.2E1,5.2E1,1.8E1,2.1E1,2.94E2,2E0,3.1E2,1E1,1E0,1.23E2,2.41E2,1.8E1,4E0,5.89E2,3.11E2,9E0,4.21E2,1.9E1,6E0,2.4E1,4.69E2,6.6E1,4.7E1,7.6E1,1.92E2,8E1,7E1,9E0,3.1E1,1E0,4.4E1,8E0,1.7E1,1E0,1.9E1,2E0],"tree_param":{"num_deleted":"0","num_feature":"12","num_nodes":"63","size_leaf_vector":"0"}},{"base_weights":[-1.9129166E-1,-2.2432534E-1,-1.21644214E-1,-2.5455981E-1,-2.0231754E-1,-1.3517277E-1,-1.0470871E-2,-2.694902E-1,-2.2990721E-1,-2.1746482E-1,-1.7249392E-1,-1.556579E-1,-9.643734E-2,-4.546216E-2,6.414739E-2,-2.8703934E-1,-2.5241363E-1,-2.5744033E-1,-2.1578588E-1,-2.3100685E-1,-2.026733E-1,-1.7699097E-1,-1.0295544E-1,-1.6978492E-1,-1.3045093E-1,-1.1060831E-1,-4.687344E-2,-6.868725E-2,-3.0143475E-2,1.78541E-2,1.0121217E-1,-2.8842625E-1,-5.498041E-2,-2.549752E-1,-1.5704454E-1,-7.328236E-2,-2.5833446E-1,-2.2095022E-1,-1.3865146E-1,-2.3200381E-1,-1.4443184E-1,-2.1477489E-1,-1.884839E-1,-1.7991816E-1,-1.0637773E-1,-5.7349958E-2,-1.11606754E-1,-1.7711498E-1,-1.24721326E-1,-1.3818763E-1,-9.3682475E-2,-1.2856232E-1,-8.5570805E-2,-5.8213655E-2,3.8329445E-2,-6.984709E-2,-1.5786245E-2,-3.6329012E-2,4.1334894E-3,1.0474745E-2,7.5341254E-2,8.5781716E-2,1.7034447E-1],"categories":[],"categories_nodes":[],"categories_segments":[],"categories_sizes":[],"default_left":[true,true,true,true,true,true,true,true,true,true,true,true,true,true,true,true,true,true,true,true,true,true,true,true,true,true,true,true,true,true,true,false,false,false,false,false,false,false,false,false,false,false,false,false,false,false,false,false,false,false,false,false,false,false,false,false,false,false,false,false,false,false,false],"id":4,"left_children":[1,3,5,7,9,11,13,15,17,19,21,23,25,27,29,31,33,35,37,39,41,43,45,47,49,51,53,55,57,59,61,-1,-1,-1,-1,-1,-1,-1,-1,-1,-1,-1,-1,-1,-1,-1,-1,-1,-1,-1,-1,-1,-1,-1,-1,-1,-1,-1,-1,-1,-1,-1,-1],"loss_changes":[8.059708E0,1.5341339E0,1.7026348E0,3.061142E-1,5.877037E-1,7.8642464E-1,3.2667896E-1,1.12449646E-1,9.374809E-2,1.3626099E-1,1.2906742E-1,2.1251965E-1,2.4204922E-1,2.817066E-2,6.682697E-2,7.973099E-2,3.8375854E-2,1.6517639E-3,7.2935104E-2,7.0590973E-3,3.593254E-2,7.201481E-2,5.8303177E-3,1.16313934E-1,5.5610657E-2,1.1171889E-1,7.952884E-2,9.2214346E-4,1.13873035E-2,7.270965E-3,8.855909E-3,0E0,0E0,0E0,0E0,0E0,0E0,0E0,0E0,0E0,0E0,0E0,0E0,0E0,0E0,0E0,0E0,0E0,0E0,0E0,0E0,0E0,0E0,0E0,0E0,0E0,0E0,0E0,0E0,0E0,0E0,0E0,0E0],"parents":[2147483647,0,0,1,1,2,2,3,3,4,4,5,5,6,6,7,7,8,8,9,9,10,10,11,11,12,12,13,13,14,14,15,15,16,16,17,17,18,18,19,19,20,20,21,21,22,22,23,23,24,24,25,25,26,26,27,27,28,28,29,29,30,30],"right_children":[2,4,6,8,10,12,14,16,18,20,22,24,26,28,30,32,34,36,38,40,42,44,46,48,50,52,54,56,58,60,62,-1,-1,-1,-1,-1,-1,-1,-1,-1,-1,-1,-1,-1,-1,-1,-1,-1,-1,-1,-1,-1,-1,-1,-1,-1,-1,-1,-1,-1,-1,-1,-1],"split_conditions":[5.08176E-1,3.9937747E-1,5.737494E-1,3.801673E-1,4.1306096E-1,5.814818E-1,6.1111116E-1,3.3834058E-1,2.777778E-1,4.5621872E-1,5.841242E-1,4.256876E-1,6.1111116E-1,5.568849E-1,6.553916E-1,6.9057286E-1,5.8333224E-1,1.8965518E-1,5.7310605E-1,6.4800966E-1,3.888889E-1,5.665008E-1,2.2844827E-1,4.6591446E-1,5E-1,4.3662536E-1,7.380936E-1,3.04402E-1,6.6244507E-1,5E-1,5E-1,-2.8842625E-3,-5.4980407E-4,-2.549752E-3,-1.5704454E-3,-7.3282357E-4,-2.5833445E-3,-2.209502E-3,-1.3865145E-3,-2.320038E-3,-1.4443184E-3,-2.1477488E-3,-1.8848389E-3,-1.7991815E-3,-1.0637773E-3,-5.7349954E-4,-1.1160675E-3,-1.7711497E-3,-1.2472132E-3,-1.3818763E-3,-9.368247E-4,-1.2856232E-3,-8.5570803E-4,-5.8213656E-4,3.8329445E-4,-6.984709E-4,-1.5786245E-4,-3.632901E-4,4.1334893E-5,1.0474745E-4,7.5341255E-4,8.578171E-4,1.7034446E-3],"split_indices":[0,0,5,5,5,0,4,0,4,0,5,5,4,0,0,1,1,11,5,1,4,1,11,1,4,5,0,6,0,2,2,0,0,0,0,0,0,0,0,0,0,0,0,0,0,0,0,0,0,0,0,0,0,0,0,0,0,0,0,0,0,0,0],"split_type":[0,0,0,0,0,0,0,0,0,0,0,0,0,0,0,0,0,0,0,0,0,0,0,0,0,0,0,0,0,0,0,0,0,0,0,0,0,0,0,0,0,0,0,0,0,0,0,0,0,0,0,0,0,0,0,0,0,0,0,0,0,0,0],"sum_hessian":[3.514E3,2.382E3,1.132E3,9.99E2,1.383E3,1.009E3,1.23E2,6.16E2,3.83E2,9.13E2,4.7E2,6.58E2,3.51E2,8.4E1,3.9E1,2.96E2,3.2E2,1.24E2,2.59E2,4.69E2,4.44E2,4.4E2,3E1,4.18E2,2.4E2,2.72E2,7.9E1,3.2E1,5.2E1,1.8E1,2.1E1,2.94E2,2E0,3.1E2,1E1,1E0,1.23E2,2.41E2,1.8E1,4.62E2,7E0,2.32E2,2.12E2,4.21E2,1.9E1,6E0,2.4E1,3.57E2,6.1E1,1.96E2,4.4E1,1.56E2,1.16E2,7E1,9E0,3.1E1,1E0,4.4E1,8E0,1.7E1,1E0,1.9E1,2E0],"tree_param":{"num_deleted":"0","num_feature":"12","num_nodes":"63","size_leaf_vector":"0"}},{"base_weights":[-1.8938792E-1,-2.2209334E-1,-1.2043256E-1,-2.520287E-1,-2.0030329E-1,-1.3382865E-1,-1.0348083E-2,-2.6680756E-1,-2.2762613E-1,-2.152987E-1,-1.7077863E-1,-1.5410942E-1,-9.5479615E-2,-4.5021396E-2,6.3591406E-2,-2.8418052E-1,-2.4990234E-1,-2.5489244E-1,-2.1364184E-1,-2.253935E-1,-1.9594787E-1,-1.7506027E-1,-9.948405E-2,-1.6289671E-1,-1.1488286E-1,-1.0951007E-1,-4.64072E-2,-6.802633E-2,-2.9848112E-2,1.7720746E-2,1.0031646E-1,-2.8555176E-1,-5.4613877E-2,-2.5243366E-1,-1.5561686E-1,-7.291596E-2,-2.5577196E-1,-2.1874982E-1,-1.3733791E-1,-2.2751684E-1,-1.7237654E-1,-1.979362E-1,-1.1431681E-1,-1.779348E-1,-1.05367154E-1,-5.6858398E-2,-1.08131684E-1,-1.6907763E-1,-1.1710671E-1,-1.4019352E-1,-9.761279E-2,-1.2275272E-1,-7.6604635E-2,-5.7639726E-2,3.798446E-2,-7.945643E-2,-5.408699E-2,-3.5973795E-2,4.096773E-3,-7.1467867E-4,3.828396E-2,8.496678E-2,1.6920884E-1],"categories":[],"categories_nodes":[],"categories_segments":[],"categories_sizes":[],"default_left":[true,true,true,true,true,true,true,true,true,true,true,true,true,true,true,true,true,true,true,true,true,true,true,true,true,true,true,true,true,true,true,false,false,false,false,false,false,false,false,false,false,false,false,false,false,false,false,false,false,false,false,false,false,false,false,false,false,false,false,false,false,false,false],"id":5,"left_children":[1,3,5,7,9,11,13,15,17,19,21,23,25,27,29,31,33,35,37,39,41,43,45,47,49,51,53,55,57,59,61,-1,-1,-1,-1,-1,-1,-1,-1,-1,-1,-1,-1,-1,-1,-1,-1,-1,-1,-1,-1,-1,-1,-1,-1,-1,-1,-1,-1,-1,-1,-1,-1],"loss_changes":[7.9003296E0,1.5039291E0,1.6694527E0,2.9990768E-1,5.759735E-1,7.708111E-1,3.207651E-1,1.10191345E-1,9.196472E-2,1.3437653E-1,1.2635994E-1,2.0843983E-1,2.3727298E-1,2.7639687E-2,6.5606415E-2,7.7898026E-2,3.732872E-2,1.3561249E-3,7.129574E-2,2.7650833E-2,2.9474258E-2,7.000065E-2,4.5415163E-3,1.3190079E-1,4.0517807E-2,1.0955763E-1,7.8023955E-2,9.6026063E-4,1.116797E-2,7.2301016E-3,8.887336E-3,0E0,0E0,0E0,0E0,0E0,0E0,0E0,0E0,0E0,0E0,0E0,0E0,0E0,0E0,0E0,0E0,0E0,0E0,0E0,0E0,0E0,0E0,0E0,0E0,0E0,0E0,0E0,0E0,0E0,0E0,0E0,0E0],"parents":[2147483647,0,0,1,1,2,2,3,3,4,4,5,5,6,6,7,7,8,8,9,9,10,10,11,11,12,12,13,13,14,14,15,15,16,16,17,17,18,18,19,19,20,20,21,21,22,22,23,23,24,24,25,25,26,26,27,27,28,28,29,29,30,30],"right_children":[2,4,6,8,10,12,14,16,18,20,22,24,26,28,30,32,34,36,38,40,42,44,46,48,50,52,54,56,58,60,62,-1,-1,-1,-1,-1,-1,-1,-1,-1,-1,-1,-1,-1,-1,-1,-1,-1,-1,-1,-1,-1,-1,-1,-1,-1,-1,-1,-1,-1,-1,-1,-1],"split_conditions":[5.08176E-1,3.9937747E-1,5.737494E-1,3.801673E-1,4.1306096E-1,5.814818E-1,6.1111116E-1,3.3834058E-1,2.777778E-1,3.888889E-1,5.858935E-1,4.9879363E-1,6.1111116E-1,5.568849E-1,6.553916E-1,6.9057286E-1,5.8333224E-1,1.8965518E-1,5.7310605E-1,5.307026E-1,5.9744334E-1,5.665008E-1,2.2844827E-1,4.7257543E-1,3.888889E-1,4.9034905E-1,7.380936E-1,5E-1,6.6244507E-1,3.9075494E-1,5E-1,-2.8555174E-3,-5.4613873E-4,-2.5243366E-3,-1.5561687E-3,-7.2915957E-4,-2.5577196E-3,-2.1874981E-3,-1.373379E-3,-2.2751684E-3,-1.7237654E-3,-1.979362E-3,-1.1431681E-3,-1.7793479E-3,-1.0536715E-3,-5.6858396E-4,-1.0813168E-3,-1.6907763E-3,-1.1710671E-3,-1.4019352E-3,-9.7612786E-4,-1.2275272E-3,-7.6604635E-4,-5.7639723E-4,3.798446E-4,-7.945643E-4,-5.408699E-4,-3.5973793E-4,4.096773E-5,-7.1467866E-6,3.828396E-4,8.4966776E-4,1.6920883E-3],"split_indices":[0,0,5,5,5,0,4,0,4,4,5,5,4,0,0,1,1,11,5,1,1,1,11,1,4,5,0,4,0,1,2,0,0,0,0,0,0,0,0,0,0,0,0,0,0,0,0,0,0,0,0,0,0,0,0,0,0,0,0,0,0,0,0],"split_type":[0,0,0,0,0,0,0,0,0,0,0,0,0,0,0,0,0,0,0,0,0,0,0,0,0,0,0,0,0,0,0,0,0,0,0,0,0,0,0,0,0,0,0,0,0,0,0,0,0,0,0,0,0,0,0,0,0,0,0,0,0,0,0],"sum_hessian":[3.514E3,2.382E3,1.132E3,9.99E2,1.383E3,1.009E3,1.23E2,6.16E2,3.83E2,9.13E2,4.7E2,6.58E2,3.51E2,8.4E1,3.9E1,2.96E2,3.2E2,1.24E2,2.59E2,5.93E2,3.2E2,4.42E2,2.8E1,5.35E2,1.23E2,2.72E2,7.9E1,3.2E1,5.2E1,1.8E1,2.1E1,2.94E2,2E0,3.1E2,1E1,1E0,1.23E2,2.41E2,1.8E1,5.67E2,2.6E1,3.11E2,9E0,4.23E2,1.9E1,6E0,2.2E1,4.69E2,6.6E1,4.7E1,7.6E1,1.92E2,8E1,7E1,9E0,1.5E1,1.7E1,4.4E1,8E0,1E1,8E0,1.9E1,2E0],"tree_param":{"num_deleted":"0","num_feature":"12","num_nodes":"63","size_leaf_vector":"0"}},{"base_weights":[-1.8750317E-1,-2.198833E-1,-1.1923368E-1,-2.4952273E-1,-1.9830863E-1,-1.3249773E-1,-1.0234411E-2,-2.641516E-1,-2.253677E-1,-2.131535E-1,-1.6908036E-1,-1.5257628E-1,-9.4531044E-2,-4.4590637E-2,6.302843E-2,-2.8135017E-1,-2.4741602E-1,-2.523698E-1,-2.1151912E-1,-2.2652414E-1,-1.985527E-1,-1.7348349E-1,-1.0098816E-1,-1.6647327E-1,-1.2778203E-1,-1.0842228E-1,-4.5945577E-2,-6.738653E-2,-2.9555637E-2,1.7563315E-2,9.942883E-2,-2.8270593E-1,-5.4249793E-2,-2.4991742E-1,-1.5420218E-1,-7.255137E-2,-2.5323486E-1,-2.1657138E-1,-1.3603681E-1,-8.755993E-2,-2.2693092E-1,-2.0042644E-1,-1.2655191E-1,-1.7634809E-1,-1.04366176E-1,-5.637103E-2,-1.0944142E-1,-1.7366272E-1,-1.2227499E-1,-1.3541913E-1,-9.150884E-2,-1.2606518E-1,-8.382092E-2,-5.707144E-2,3.7642587E-2,-6.8552375E-2,-1.5039757E-2,-3.5622045E-2,4.0603746E-3,1.0230929E-2,7.477313E-2,8.41596E-2,1.6808076E-1],"categories":[],"categories_nodes":[],"categories_segments":[],"categories_sizes":[],"default_left":[true,true,true,true,true,true,true,true,true,true,true,true,true,true,true,true,true,true,true,true,true,true,true,true,true,true,true,true,true,true,true,false,false,false,false,false,false,false,false,false,false,false,false,false,false,false,false,false,false,false,false,false,false,false,false,false,false,false,false,false,false,false,false],"id":6,"left_children":[1,3,5,7,9,11,13,15,17,19,21,23,25,27,29,31,33,35,37,39,41,43,45,47,49,51,53,55,57,59,61,-1,-1,-1,-1,-1,-1,-1,-1,-1,-1,-1,-1,-1,-1,-1,-1,-1,-1,-1,-1,-1,-1,-1,-1,-1,-1,-1,-1,-1,-1,-1,-1],"loss_changes":[7.7439575E0,1.47435E0,1.6367035E0,2.9383087E-1,5.6446075E-1,7.5551605E-1,3.149228E-1,1.07975006E-1,9.0213776E-2,1.3345718E-1,1.2369442E-1,2.0579624E-1,2.3258758E-1,2.714093E-2,6.445162E-2,7.610893E-2,3.6310196E-2,1.0719299E-3,6.9690704E-2,6.6986084E-3,3.4669876E-2,6.8909645E-2,5.5226386E-3,1.11907005E-1,5.4370403E-2,1.0792589E-1,7.654755E-2,9.829104E-4,1.0952849E-2,7.205207E-3,8.9161545E-3,0E0,0E0,0E0,0E0,0E0,0E0,0E0,0E0,0E0,0E0,0E0,0E0,0E0,0E0,0E0,0E0,0E0,0E0,0E0,0E0,0E0,0E0,0E0,0E0,0E0,0E0,0E0,0E0,0E0,0E0,0E0,0E0],"parents":[2147483647,0,0,1,1,2,2,3,3,4,4,5,5,6,6,7,7,8,8,9,9,10,10,11,11,12,12,13,13,14,14,15,15,16,16,17,17,18,18,19,19,20,20,21,21,22,22,23,23,24,24,25,25,26,26,27,27,28,28,29,29,30,30],"right_children":[2,4,6,8,10,12,14,16,18,20,22,24,26,28,30,32,34,36,38,40,42,44,46,48,50,52,54,56,58,60,62,-1,-1,-1,-1,-1,-1,-1,-1,-1,-1,-1,-1,-1,-1,-1,-1,-1,-1,-1,-1,-1,-1,-1,-1,-1,-1,-1,-1,-1,-1,-1,-1],"split_conditions":[5.08176E-1,3.9937747E-1,5.737494E-1,3.801673E-1,4.1306096E-1,5.814818E-1,6.1111116E-1,3.3834058E-1,2.777778E-1,4.5621872E-1,5.841242E-1,4.256876E-1,6.1111116E-1,5.568849E-1,6.553916E-1,6.9057286E-1,5.8333224E-1,1.8965518E-1,5.7310605E-1,8.8455155E-2,6.128032E-1,5.665008E-1,2.2844827E-1,4.6591446E-1,5E-1,4.3662536E-1,7.380936E-1,3.75E-1,6.6244507E-1,5E-1,5E-1,-2.8270592E-3,-5.424979E-4,-2.499174E-3,-1.5420218E-3,-7.255137E-4,-2.5323485E-3,-2.1657138E-3,-1.3603681E-3,-8.755993E-4,-2.269309E-3,-2.0042644E-3,-1.2655191E-3,-1.7634808E-3,-1.0436617E-3,-5.637103E-4,-1.0944142E-3,-1.7366272E-3,-1.2227498E-3,-1.3541912E-3,-9.150884E-4,-1.2606517E-3,-8.382092E-4,-5.707144E-4,3.7642586E-4,-6.8552373E-4,-1.5039757E-4,-3.5622044E-4,4.0603743E-5,1.02309285E-4,7.477313E-4,8.4159593E-4,1.6808076E-3],"split_indices":[0,0,5,5,5,0,4,0,4,0,5,5,4,0,0,1,1,11,5,6,1,1,11,1,4,5,0,3,0,2,2,0,0,0,0,0,0,0,0,0,0,0,0,0,0,0,0,0,0,0,0,0,0,0,0,0,0,0,0,0,0,0,0],"split_type":[0,0,0,0,0,0,0,0,0,0,0,0,0,0,0,0,0,0,0,0,0,0,0,0,0,0,0,0,0,0,0,0,0,0,0,0,0,0,0,0,0,0,0,0,0,0,0,0,0,0,0,0,0,0,0,0,0,0,0,0,0,0,0],"sum_hessian":[3.514E3,2.382E3,1.132E3,9.99E2,1.383E3,1.009E3,1.23E2,6.16E2,3.83E2,9.13E2,4.7E2,6.58E2,3.51E2,8.4E1,3.9E1,2.96E2,3.2E2,1.24E2,2.59E2,4.69E2,4.44E2,4.4E2,3E1,4.18E2,2.4E2,2.72E2,7.9E1,3.2E1,5.2E1,1.8E1,2.1E1,2.94E2,2E0,3.1E2,1E1,1E0,1.23E2,2.41E2,1.8E1,2E0,4.67E2,4.31E2,1.3E1,4.21E2,1.9E1,6E0,2.4E1,3.57E2,6.1E1,1.96E2,4.4E1,1.56E2,1.16E2,7E1,9E0,3.1E1,1E0,4.4E1,8E0,1.7E1,1E0,1.9E1,2E0],"tree_param":{"num_deleted":"0","num_feature":"12","num_nodes":"63","size_leaf_vector":"0"}},{"base_weights":[-1.8563679E-1,-2.166347E-1,-1.1573421E-1,-2.3855373E-1,-1.869758E-1,-1.2920238E-1,-9.6758315E-3,-2.5285453E-1,-2.1419917E-1,-2.0112905E-1,-1.582947E-1,-1.4957277E-1,-9.359225E-2,-4.3921735E-2,6.248246E-2,-2.7854803E-1,-2.3921469E-1,-2.4642056E-1,-2.0269114E-1,-2.1227884E-1,-1.8602741E-1,-1.6501953E-1,-1.11716084E-1,-1.5811251E-1,-1.1151413E-1,-1.07345745E-1,-4.5488548E-2,-6.682269E-2,-2.9266028E-2,1.7432446E-2,9.854918E-2,-2.7988848E-1,-5.388813E-2,-2.4259485E-1,-1.8323456E-1,-2.4959841E-1,-1.1514768E-1,-2.067219E-1,-1.2568778E-1,-9.636532E-2,-2.1292672E-1,-1.883046E-1,-1.0866654E-1,-1.6679983E-1,-4.939125E-2,-1.267587E-1,-8.287651E-2,-1.6496207E-1,-1.14884704E-1,-1.3953996E-1,-9.283842E-2,-1.2035624E-1,-7.502018E-2,-5.650876E-2,3.7303824E-2,-7.8102306E-2,-5.2275836E-2,-3.5273734E-2,4.0242937E-3,1.0134329E-2,7.439926E-2,8.336006E-2,1.6696024E-1],"categories":[],"categories_nodes":[],"categories_segments":[],"categories_sizes":[],"default_left":[true,true,true,true,true,true,true,true,true,true,true,true,true,true,true,true,true,true,true,true,true,true,true,true,true,true,true,true,true,true,true,false,false,false,false,false,false,false,false,false,false,false,false,false,false,false,false,false,false,false,false,false,false,false,false,false,false,false,false,false,false,false,false],"id":7,"left_children":[1,3,5,7,9,11,13,15,17,19,21,23,25,27,29,31,33,35,37,39,41,43,45,47,49,51,53,55,57,59,61,-1,-1,-1,-1,-1,-1,-1,-1,-1,-1,-1,-1,-1,-1,-1,-1,-1,-1,-1,-1,-1,-1,-1,-1,-1,-1,-1,-1,-1,-1,-1,-1],"loss_changes":[7.5913467E0,1.5377274E0,1.5442915E0,4.3204498E-1,3.899269E-1,6.8237877E-1,3.066928E-1,2.3966599E-1,1.4398384E-1,7.7028275E-2,9.057045E-2,1.8029976E-1,2.2799802E-1,2.6237264E-2,6.327431E-2,7.435608E-2,6.491852E-2,2.6741982E-2,9.537697E-2,8.846283E-3,3.273964E-2,5.392933E-2,9.884357E-3,1.2761307E-1,4.723668E-2,1.057868E-1,7.5099155E-2,1.1677891E-3,1.0741875E-2,7.145271E-3,8.942455E-3,0E0,0E0,0E0,0E0,0E0,0E0,0E0,0E0,0E0,0E0,0E0,0E0,0E0,0E0,0E0,0E0,0E0,0E0,0E0,0E0,0E0,0E0,0E0,0E0,0E0,0E0,0E0,0E0,0E0,0E0,0E0,0E0],"parents":[2147483647,0,0,1,1,2,2,3,3,4,4,5,5,6,6,7,7,8,8,9,9,10,10,11,11,12,12,13,13,14,14,15,15,16,16,17,17,18,18,19,19,20,20,21,21,22,22,23,23,24,24,25,25,26,26,27,27,28,28,29,29,30,30],"right_children":[2,4,6,8,10,12,14,16,18,20,22,24,26,28,30,32,34,36,38,40,42,44,46,48,50,52,54,56,58,60,62,-1,-1,-1,-1,-1,-1,-1,-1,-1,-1,-1,-1,-1,-1,-1,-1,-1,-1,-1,-1,-1,-1,-1,-1,-1,-1,-1,-1,-1,-1,-1,-1],"split_conditions":[5.120721E-1,4.3305612E-1,5.737494E-1,3.7984556E-1,4.3035227E-1,5.814818E-1,6.1111116E-1,3.3834058E-1,2.777778E-1,3.888889E-1,5.6940645E-1,4.9879363E-1,6.1111116E-1,5.568849E-1,6.553916E-1,6.9057286E-1,4.901595E-1,4.2827946E-1,5.841242E-1,8.596346E-2,5.9744334E-1,6.0623944E-1,5.920058E-1,4.670589E-1,3.888889E-1,4.9034905E-1,7.380936E-1,5E-1,6.6244507E-1,5E-1,5E-1,-2.7988846E-3,-5.388813E-4,-2.4259484E-3,-1.8323455E-3,-2.495984E-3,-1.1514768E-3,-2.067219E-3,-1.2568778E-3,-9.6365315E-4,-2.1292672E-3,-1.883046E-3,-1.0866653E-3,-1.6679983E-3,-4.939125E-4,-1.267587E-3,-8.287651E-4,-1.6496206E-3,-1.148847E-3,-1.3953996E-3,-9.283842E-4,-1.2035624E-3,-7.5020175E-4,-5.650876E-4,3.7303823E-4,-7.8102306E-4,-5.2275835E-4,-3.5273735E-4,4.0242936E-5,1.0134329E-4,7.439926E-4,8.336006E-4,1.6696024E-3],"split_indices":[0,0,5,5,5,0,4,0,4,4,5,5,4,0,0,1,1,0,5,6,1,1,5,1,4,5,0,4,0,2,2,0,0,0,0,0,0,0,0,0,0,0,0,0,0,0,0,0,0,0,0,0,0,0,0,0,0,0,0,0,0,0,0],"split_type":[0,0,0,0,0,0,0,0,0,0,0,0,0,0,0,0,0,0,0,0,0,0,0,0,0,0,0,0,0,0,0,0,0,0,0,0,0,0,0,0,0,0,0,0,0,0,0,0,0,0,0,0,0,0,0,0,0,0,0,0,0,0,0],"sum_hessian":[3.514E3,2.433E3,1.081E3,1.395E3,1.038E3,9.59E2,1.22E2,8.73E2,5.22E2,6.91E2,3.47E2,6.08E2,3.51E2,8.3E1,3.9E1,2.96E2,5.77E2,1.32E2,3.9E2,3.9E2,3.01E2,3.01E2,4.6E1,4.94E2,1.14E2,2.72E2,7.9E1,3.1E1,5.2E1,1.8E1,2.1E1,2.94E2,2E0,5.41E2,3.6E1,1.28E2,4E0,3.69E2,2.1E1,3E0,3.87E2,2.91E2,1E1,2.96E2,5E0,2.8E1,1.8E1,4.24E2,7E1,4.3E1,7.1E1,1.92E2,8E1,7E1,9E0,1.5E1,1.6E1,4.4E1,8E0,1.7E1,1E0,1.9E1,2E0],"tree_param":{"num_deleted":"0","num_feature":"12","num_nodes":"63","size_leaf_vector":"0"}},{"base_weights":[-1.8378907E-1,-2.155318E-1,-1.1686348E-1,-2.4762279E-1,-1.9630475E-1,-1.2986796E-1,-9.997513E-3,-2.6198882E-1,-2.2354226E-1,-2.1072376E-1,-1.6820984E-1,-1.4954394E-1,-9.2662424E-2,-4.373349E-2,6.194137E-2,-2.6455262E-1,-1.7137386E-1,-2.2726984E-1,-1.278751E-1,-2.2796874E-1,-1.9847126E-1,-1.7230901E-1,-9.904813E-2,-1.6348971E-1,-1.2562026E-1,-1.0627944E-1,-4.503607E-2,-6.610441E-2,-2.897926E-2,1.7302627E-2,9.76775E-2,-2.7851593E-1,-2.4720047E-1,-1.8467185E-1,-7.86629E-2,-2.4908487E-1,-2.1380137E-1,-2.301779E-1,-1.3698977E-1,-2.0917857E-1,-1.8446003E-1,-1.8257171E-1,-1.5185799E-1,-5.5177473E-2,-1.0736999E-1,-1.7070314E-1,-1.1989917E-1,-1.3305323E-1,-9.11597E-2,-1.2361667E-1,-8.210657E-2,-5.595164E-2,3.6968064E-2,-7.737009E-2,-5.241801E-2,-3.4928836E-2,3.988531E-3,1.0038631E-2,7.402727E-2,8.256817E-2,1.6584718E-1],"categories":[],"categories_nodes":[],"categories_segments":[],"categories_sizes":[],"default_left":[true,true,true,true,true,true,true,true,true,true,true,true,true,true,true,true,true,true,false,true,true,true,true,true,true,true,true,true,true,true,true,false,false,false,false,false,false,false,false,false,false,false,false,false,false,false,false,false,false,false,false,false,false,false,false,false,false,false,false,false,false],"id":8,"left_children":[1,3,5,7,9,11,13,15,17,19,21,23,25,27,29,31,33,35,-1,37,39,41,43,45,47,49,51,53,55,57,59,-1,-1,-1,-1,-1,-1,-1,-1,-1,-1,-1,-1,-1,-1,-1,-1,-1,-1,-1,-1,-1,-1,-1,-1,-1,-1,-1,-1,-1,-1],"loss_changes":[7.4420853E0,1.4217377E0,1.5732727E0,2.4897385E-1,5.70179E-1,7.255192E-1,3.0364802E-1,8.267212E-2,9.182739E-2,1.6266632E-1,1.2808895E-1,1.9932652E-1,2.2349572E-1,2.613993E-2,6.2118545E-2,6.053543E-2,7.6648593E-3,4.2236328E-2,0E0,4.9264908E-2,4.8877716E-2,7.3438644E-2,5.3932667E-3,1.0939598E-1,5.11384E-2,1.0426211E-1,7.3678166E-2,1.032576E-3,1.0534961E-2,7.085771E-3,8.966267E-3,0E0,0E0,0E0,0E0,0E0,0E0,0E0,0E0,0E0,0E0,0E0,0E0,0E0,0E0,0E0,0E0,0E0,0E0,0E0,0E0,0E0,0E0,0E0,0E0,0E0,0E0,0E0,0E0,0E0,0E0],"parents":[2147483647,0,0,1,1,2,2,3,3,4,4,5,5,6,6,7,7,8,8,9,9,10,10,11,11,12,12,13,13,14,14,15,15,16,16,17,17,19,19,20,20,21,21,22,22,23,23,24,24,25,25,26,26,27,27,28,28,29,29,30,30],"right_children":[2,4,6,8,10,12,14,16,18,20,22,24,26,28,30,32,34,36,-1,38,40,42,44,46,48,50,52,54,56,58,60,-1,-1,-1,-1,-1,-1,-1,-1,-1,-1,-1,-1,-1,-1,-1,-1,-1,-1,-1,-1,-1,-1,-1,-1,-1,-1,-1,-1,-1,-1],"split_conditions":[5.08176E-1,3.8775504E-1,5.737494E-1,3.801673E-1,4.1306096E-1,5.814818E-1,6.1111116E-1,5.8333224E-1,5.9240794E-1,4.4057164E-1,5.841242E-1,4.1788644E-1,6.1111116E-1,5.568849E-1,6.553916E-1,3.3834058E-1,6.9689775E-1,2.777778E-1,-1.2787511E-3,5.567229E-1,3.888889E-1,3.888889E-1,2.2844827E-1,4.6591446E-1,5E-1,4.3662536E-1,7.380936E-1,5E-1,6.6244507E-1,5E-1,5E-1,-2.7851593E-3,-2.4720046E-3,-1.8467185E-3,-7.86629E-4,-2.4908488E-3,-2.1380137E-3,-2.3017789E-3,-1.3698977E-3,-2.0917857E-3,-1.8446002E-3,-1.825717E-3,-1.5185798E-3,-5.517747E-4,-1.0736999E-3,-1.7070314E-3,-1.1989917E-3,-1.3305322E-3,-9.11597E-4,-1.2361667E-3,-8.210657E-4,-5.5951637E-4,3.6968064E-4,-7.737009E-4,-5.2418007E-4,-3.4928834E-4,3.9885308E-5,1.0038631E-4,7.402727E-4,8.2568167E-4,1.6584718E-3],"split_indices":[0,0,5,5,5,0,4,1,5,0,5,5,4,0,0,0,1,4,0,1,4,4,11,1,4,5,0,4,0,2,2,0,0,0,0,0,0,0,0,0,0,0,0,0,0,0,0,0,0,0,0,0,0,0,0,0,0,0,0,0,0],"split_type":[0,0,0,0,0,0,0,0,0,0,0,0,0,0,0,0,0,0,0,0,0,0,0,0,0,0,0,0,0,0,0,0,0,0,0,0,0,0,0,0,0,0,0,0,0,0,0,0,0,0,0,0,0,0,0,0,0,0,0,0,0],"sum_hessian":[3.514E3,2.382E3,1.132E3,8.88E2,1.494E3,1.009E3,1.23E2,5.5E2,3.38E2,9.83E2,5.11E2,6.58E2,3.51E2,8.4E1,3.9E1,5.33E2,1.7E1,3.24E2,1.4E1,4.01E2,5.82E2,4.81E2,3E1,4.12E2,2.46E2,2.72E2,7.9E1,3.2E1,5.2E1,1.8E1,2.1E1,2.87E2,2.46E2,1.4E1,3E0,1.17E2,2.07E2,3.9E2,1.1E1,3.22E2,2.6E2,3.15E2,1.66E2,6E0,2.4E1,3.51E2,6.1E1,2E2,4.6E1,1.56E2,1.16E2,7E1,9E0,1.5E1,1.7E1,4.4E1,8E0,1.7E1,1E0,1.9E1,2E0],"tree_param":{"num_deleted":"0","num_feature":"12","num_nodes":"61","size_leaf_vector":"0"}},{"base_weights":[-1.819603E-1,-2.1234778E-1,-1.1343436E-1,-2.3384726E-1,-1.8325669E-1,-1.2663862E-1,-9.454492E-3,-2.4785097E-1,-2.0999816E-1,-1.9715004E-1,-1.5510309E-1,-1.4660071E-1,-9.174218E-2,-4.3084588E-2,6.140507E-2,-2.730336E-1,-2.344823E-1,-2.3740448E-1,-1.9692972E-1,-2.0808038E-1,-1.8234569E-1,-1.6170405E-1,-1.0938834E-1,-1.5499815E-1,-1.0918038E-1,-1.05224185E-1,-4.458809E-2,-6.557044E-2,-2.8695308E-2,1.7173855E-2,9.681362E-2,-2.7434564E-1,-5.3004455E-2,-2.3780298E-1,-1.7950149E-1,-2.4013178E-1,-1.0264999E-1,-2.002759E-1,-1.2222601E-1,-9.42542E-2,-2.0871755E-1,-1.8459386E-1,-1.0609008E-1,-1.6346551E-1,-4.7560602E-2,-1.2404005E-1,-8.1267916E-2,-1.6172153E-1,-1.1256946E-1,-1.3687599E-1,-9.073891E-2,-1.2238838E-1,-8.129253E-2,-5.540001E-2,3.663536E-2,-7.664475E-2,-5.1290467E-2,-3.4587312E-2,3.953086E-3,-9.845252E-4,3.7459224E-2,8.178375E-2,1.6474152E-1],"categories":[],"categories_nodes":[],"categories_segments":[],"categories_sizes":[],"default_left":[true,true,true,true,true,true,true,true,true,true,true,true,true,true,true,true,true,true,true,true,true,true,true,true,true,true,true,true,true,true,true,false,false,false,false,false,false,false,false,false,false,false,false,false,false,false,false,false,false,false,false,false,false,false,false,false,false,false,false,false,false,false,false],"id":9,"left_children":[1,3,5,7,9,11,13,15,17,19,21,23,25,27,29,31,33,35,37,39,41,43,45,47,49,51,53,55,57,59,61,-1,-1,-1,-1,-1,-1,-1,-1,-1,-1,-1,-1,-1,-1,-1,-1,-1,-1,-1,-1,-1,-1,-1,-1,-1,-1,-1,-1,-1,-1,-1,-1],"loss_changes":[7.2953033E0,1.4794769E0,1.4843636E0,4.1418457E-1,3.7582397E-1,6.5529346E-1,2.957563E-1,2.3021698E-1,1.4056587E-1,7.4035645E-2,8.732414E-2,1.744461E-1,2.190857E-1,2.5297076E-2,6.098385E-2,7.119942E-2,6.284332E-2,3.5622597E-2,6.551075E-2,8.686066E-3,3.218937E-2,5.2945614E-2,9.284139E-3,1.230011E-1,4.6316028E-2,1.02190256E-1,7.228413E-2,1.129359E-3,1.0332044E-2,7.035519E-3,8.987665E-3,0E0,0E0,0E0,0E0,0E0,0E0,0E0,0E0,0E0,0E0,0E0,0E0,0E0,0E0,0E0,0E0,0E0,0E0,0E0,0E0,0E0,0E0,0E0,0E0,0E0,0E0,0E0,0E0,0E0,0E0,0E0,0E0],"parents":[2147483647,0,0,1,1,2,2,3,3,4,4,5,5,6,6,7,7,8,8,9,9,10,10,11,11,12,12,13,13,14,14,15,15,16,16,17,17,18,18,19,19,20,20,21,21,22,22,23,23,24,24,25,25,26,26,27,27,28,28,29,29,30,30],"right_children":[2,4,6,8,10,12,14,16,18,20,22,24,26,28,30,32,34,36,38,40,42,44,46,48,50,52,54,56,58,60,62,-1,-1,-1,-1,-1,-1,-1,-1,-1,-1,-1,-1,-1,-1,-1,-1,-1,-1,-1,-1,-1,-1,-1,-1,-1,-1,-1,-1,-1,-1,-1,-1],"split_conditions":[5.120721E-1,4.3305612E-1,5.737494E-1,3.7984556E-1,4.3035227E-1,5.814818E-1,6.1111116E-1,3.3834058E-1,3.288216E-1,3.888889E-1,5.6940645E-1,4.9879363E-1,6.1111116E-1,5.568849E-1,6.553916E-1,6.9057286E-1,4.901595E-1,5.9683126E-1,5.841242E-1,8.596346E-2,5.9744334E-1,6.0623944E-1,5.920058E-1,4.670589E-1,3.888889E-1,4.3662536E-1,7.380936E-1,5E-1,6.6244507E-1,3.9075494E-1,5E-1,-2.7434563E-3,-5.3004455E-4,-2.3780297E-3,-1.7950148E-3,-2.4013177E-3,-1.0264999E-3,-2.002759E-3,-1.2222601E-3,-9.42542E-4,-2.0871756E-3,-1.8459385E-3,-1.0609009E-3,-1.634655E-3,-4.75606E-4,-1.2404005E-3,-8.126791E-4,-1.6172152E-3,-1.1256946E-3,-1.3687598E-3,-9.0738904E-4,-1.2238837E-3,-8.129253E-4,-5.540001E-4,3.663536E-4,-7.6644745E-4,-5.1290466E-4,-3.4587312E-4,3.953086E-5,-9.845252E-6,3.7459223E-4,8.178375E-4,1.6474151E-3],"split_indices":[0,0,5,5,5,0,4,0,0,4,5,5,4,0,0,1,1,5,5,6,1,1,5,1,4,5,0,4,0,1,2,0,0,0,0,0,0,0,0,0,0,0,0,0,0,0,0,0,0,0,0,0,0,0,0,0,0,0,0,0,0,0,0],"split_type":[0,0,0,0,0,0,0,0,0,0,0,0,0,0,0,0,0,0,0,0,0,0,0,0,0,0,0,0,0,0,0,0,0,0,0,0,0,0,0,0,0,0,0,0,0,0,0,0,0,0,0,0,0,0,0,0,0,0,0,0,0,0,0],"sum_hessian":[3.514E3,2.433E3,1.081E3,1.395E3,1.038E3,9.59E2,1.22E2,8.73E2,5.22E2,6.91E2,3.47E2,6.08E2,3.51E2,8.3E1,3.9E1,2.96E2,5.77E2,1.63E2,3.59E2,3.9E2,3.01E2,3.01E2,4.6E1,4.94E2,1.14E2,2.72E2,7.9E1,3.1E1,5.2E1,1.8E1,2.1E1,2.94E2,2E0,5.41E2,3.6E1,1.59E2,4E0,3.42E2,1.7E1,3E0,3.87E2,2.91E2,1E1,2.96E2,5E0,2.8E1,1.8E1,4.24E2,7E1,4.3E1,7.1E1,1.56E2,1.16E2,7E1,9E0,1.5E1,1.6E1,4.4E1,8E0,1E1,8E0,1.9E1,2E0],"tree_param":{"num_deleted":"0","num_feature":"12","num_nodes":"63","size_leaf_vector":"0"}},{"base_weights":[-1.8014929E-1,-2.1126708E-1,-1.1454132E-1,-2.4276903E-1,-1.9239317E-1,-1.2729052E-1,-9.773314E-3,-2.5684455E-1,-2.1917503E-1,-2.0653039E-1,-1.6484742E-1,-1.465719E-1,-9.083108E-2,-4.289837E-2,6.0861763E-2,-2.5936225E-1,-1.6788283E-1,-2.2379655E-1,-1.4241055E-1,-2.1921867E-1,-1.9066925E-1,-1.688595E-1,-9.7148366E-2,-1.6029298E-1,-1.2303596E-1,-1.041794E-1,-4.4144556E-2,-6.4861E-2,-2.8414123E-2,1.7021298E-2,9.595754E-2,-2.7300653E-1,-2.4240312E-1,-1.8083028E-1,-7.7359155E-2,-2.4505837E-1,-2.1071367E-1,-2.2030336E-1,-1.3074397E-1,-1.9316193E-1,-1.3653573E-1,-1.7150754E-1,-9.9114366E-2,-5.400795E-2,-1.0534175E-1,-1.6736262E-1,-1.175704E-1,-1.3036884E-1,-8.9058414E-2,-1.1686568E-1,-7.266543E-2,-5.485382E-2,3.6305666E-2,-6.602516E-2,-1.3803959E-2,-3.4249112E-2,3.917959E-3,9.803613E-3,7.346982E-2,8.100681E-2,1.6364324E-1],"categories":[],"categories_nodes":[],"categories_segments":[],"categories_sizes":[],"default_left":[true,true,true,true,true,true,true,true,true,true,true,true,true,true,true,true,true,true,false,true,true,true,true,true,true,true,true,true,true,true,true,false,false,false,false,false,false,false,false,false,false,false,false,false,false,false,false,false,false,false,false,false,false,false,false,false,false,false,false,false,false],"id":10,"left_children":[1,3,5,7,9,11,13,15,17,19,21,23,25,27,29,31,33,35,-1,37,39,41,43,45,47,49,51,53,55,57,59,-1,-1,-1,-1,-1,-1,-1,-1,-1,-1,-1,-1,-1,-1,-1,-1,-1,-1,-1,-1,-1,-1,-1,-1,-1,-1,-1,-1,-1,-1],"loss_changes":[7.1519394E0,1.3701401E0,1.5121126E0,2.3893738E-1,5.481415E-1,6.967068E-1,2.9274496E-1,7.987213E-2,8.839607E-2,1.5623093E-1,1.2266159E-1,1.930952E-1,2.1476269E-1,2.5196567E-2,5.9911296E-2,5.7388306E-2,7.1080327E-3,3.6819458E-2,0E0,2.3021698E-2,3.367424E-2,7.202053E-2,5.2681565E-3,1.05062485E-1,4.9930334E-2,1.0065198E-1,7.09165E-2,1.050055E-3,1.0133028E-2,7.0208563E-3,9.006694E-3,0E0,0E0,0E0,0E0,0E0,0E0,0E0,0E0,0E0,0E0,0E0,0E0,0E0,0E0,0E0,0E0,0E0,0E0,0E0,0E0,0E0,0E0,0E0,0E0,0E0,0E0,0E0,0E0,0E0,0E0],"parents":[2147483647,0,0,1,1,2,2,3,3,4,4,5,5,6,6,7,7,8,8,9,9,10,10,11,11,12,12,13,13,14,14,15,15,16,16,17,17,19,19,20,20,21,21,22,22,23,23,24,24,25,25,26,26,27,27,28,28,29,29,30,30],"right_children":[2,4,6,8,10,12,14,16,18,20,22,24,26,28,30,32,34,36,-1,38,40,42,44,46,48,50,52,54,56,58,60,-1,-1,-1,-1,-1,-1,-1,-1,-1,-1,-1,-1,-1,-1,-1,-1,-1,-1,-1,-1,-1,-1,-1,-1,-1,-1,-1,-1,-1,-1],"split_conditions":[5.08176E-1,3.8775504E-1,5.737494E-1,3.801673E-1,4.1306096E-1,5.814818E-1,6.1111116E-1,5.8333224E-1,5.7310605E-1,4.5621872E-1,5.841242E-1,4.1788644E-1,6.1111116E-1,5.568849E-1,6.553916E-1,3.3834058E-1,6.9689775E-1,2.777778E-1,-1.4241055E-3,6.4800966E-1,5.297631E-1,5.665008E-1,2.2844827E-1,4.6591446E-1,5E-1,4.9034905E-1,7.380936E-1,3.75E-1,6.6244507E-1,5E-1,5E-1,-2.7300653E-3,-2.424031E-3,-1.8083028E-3,-7.735915E-4,-2.4505837E-3,-2.1071367E-3,-2.2030335E-3,-1.3074396E-3,-1.9316192E-3,-1.3653573E-3,-1.7150753E-3,-9.911436E-4,-5.400795E-4,-1.0534175E-3,-1.6736261E-3,-1.175704E-3,-1.3036884E-3,-8.9058414E-4,-1.1686567E-3,-7.266543E-4,-5.4853817E-4,3.6305666E-4,-6.602516E-4,-1.3803958E-4,-3.424911E-4,3.917959E-5,9.803612E-5,7.3469814E-4,8.100681E-4,1.6364324E-3],"split_indices":[0,0,5,5,5,0,4,1,5,0,5,5,4,0,0,0,1,4,0,1,1,1,11,1,4,5,0,3,0,2,2,0,0,0,0,0,0,0,0,0,0,0,0,0,0,0,0,0,0,0,0,0,0,0,0,0,0,0,0,0,0],"split_type":[0,0,0,0,0,0,0,0,0,0,0,0,0,0,0,0,0,0,0,0,0,0,0,0,0,0,0,0,0,0,0,0,0,0,0,0,0,0,0,0,0,0,0,0,0,0,0,0,0,0,0,0,0,0,0,0,0,0,0,0,0],"sum_hessian":[3.514E3,2.382E3,1.132E3,8.88E2,1.494E3,1.009E3,1.23E2,5.5E2,3.38E2,9.83E2,5.11E2,6.58E2,3.51E2,8.4E1,3.9E1,5.33E2,1.7E1,3.17E2,2.1E1,5.39E2,4.44E2,4.81E2,3E1,4.12E2,2.46E2,2.72E2,7.9E1,3.2E1,5.2E1,1.8E1,2.1E1,2.87E2,2.46E2,1.4E1,3E0,1.14E2,2.03E2,5.31E2,8E0,4.22E2,2.2E1,4.62E2,1.9E1,6E0,2.4E1,3.51E2,6.1E1,2E2,4.6E1,1.92E2,8E1,7E1,9E0,3.1E1,1E0,4.4E1,8E0,1.7E1,1E0,1.9E1,2E0],"tree_param":{"num_deleted":"0","num_feature":"12","num_nodes":"61","size_leaf_vector":"0"}},{"base_weights":[-1.7835627E-1,-2.0814511E-1,-1.111803E-1,-2.2924832E-1,-1.7959054E-1,-1.2412571E-1,-9.2389705E-3,-2.4296258E-1,-2.0589167E-1,-1.9322768E-1,-1.5195692E-1,-1.4260422E-1,-8.79193E-2,-4.22595E-2,6.033511E-2,-2.6762828E-1,-2.2986798E-1,-2.3280819E-1,-1.9305779E-1,-2.0402557E-1,-1.7860782E-1,-1.584355E-1,-1.0709548E-1,-1.5562506E-1,-1.1952703E-1,-1.0165689E-1,-4.1996542E-2,-6.433142E-2,-2.8135704E-2,1.6894901E-2,9.510915E-2,-2.6891252E-1,-5.2135378E-2,-2.3313579E-1,-1.757864E-1,-2.3548184E-1,-1.0068949E-1,-1.9633564E-1,-1.1987083E-1,-9.2254646E-2,-2.04652E-1,-1.8080914E-1,-1.0393565E-1,-1.6016664E-1,-4.633831E-2,-1.2136254E-1,-7.9682834E-2,-1.6314013E-1,-1.11782074E-1,-1.0198157E-1,-1.3694745E-1,-1.1932808E-1,-7.715403E-2,-5.2845925E-2,3.597892E-2,-7.533986E-2,-5.0186336E-2,-3.3914234E-2,3.88315E-3,9.71101E-3,7.3102474E-2,8.0237225E-2,1.6255228E-1],"categories":[],"categories_nodes":[],"categories_segments":[],"categories_sizes":[],"default_left":[true,true,true,true,true,true,true,true,true,true,true,true,true,true,true,true,true,true,true,true,true,true,true,true,true,true,true,true,true,true,true,false,false,false,false,false,false,false,false,false,false,false,false,false,false,false,false,false,false,false,false,false,false,false,false,false,false,false,false,false,false,false,false],"id":11,"left_children":[1,3,5,7,9,11,13,15,17,19,21,23,25,27,29,31,33,35,37,39,41,43,45,47,49,51,53,55,57,59,61,-1,-1,-1,-1,-1,-1,-1,-1,-1,-1,-1,-1,-1,-1,-1,-1,-1,-1,-1,-1,-1,-1,-1,-1,-1,-1,-1,-1,-1,-1,-1,-1],"loss_changes":[7.010704E0,1.4255447E0,1.4267397E0,3.971405E-1,3.621788E-1,6.297407E-1,2.851266E-1,2.2077179E-1,1.3572311E-1,7.280159E-2,8.4174156E-2,1.7190552E-1,2.0202446E-1,2.4376094E-2,5.8816805E-2,6.8172455E-2,6.1166763E-2,3.421974E-2,6.2828064E-2,8.497238E-3,3.0849457E-2,5.1183224E-2,8.7111E-3,1.1421585E-1,5.725026E-2,9.947491E-2,6.704223E-2,1.2018532E-3,9.93786E-3,6.9620935E-3,9.023473E-3,0E0,0E0,0E0,0E0,0E0,0E0,0E0,0E0,0E0,0E0,0E0,0E0,0E0,0E0,0E0,0E0,0E0,0E0,0E0,0E0,0E0,0E0,0E0,0E0,0E0,0E0,0E0,0E0,0E0,0E0,0E0,0E0],"parents":[2147483647,0,0,1,1,2,2,3,3,4,4,5,5,6,6,7,7,8,8,9,9,10,10,11,11,12,12,13,13,14,14,15,15,16,16,17,17,18,18,19,19,20,20,21,21,22,22,23,23,24,24,25,25,26,26,27,27,28,28,29,29,30,30],"right_children":[2,4,6,8,10,12,14,16,18,20,22,24,26,28,30,32,34,36,38,40,42,44,46,48,50,52,54,56,58,60,62,-1,-1,-1,-1,-1,-1,-1,-1,-1,-1,-1,-1,-1,-1,-1,-1,-1,-1,-1,-1,-1,-1,-1,-1,-1,-1,-1,-1,-1,-1,-1,-1],"split_conditions":[5.120721E-1,4.3305612E-1,5.737494E-1,3.7984556E-1,4.3035227E-1,5.8632135E-1,6.1111116E-1,3.3834058E-1,3.288216E-1,3.888889E-1,5.6940645E-1,4.256876E-1,6.1111116E-1,5.568849E-1,6.553916E-1,6.9057286E-1,4.901595E-1,5.9683126E-1,5.841242E-1,8.596346E-2,5.9744334E-1,6.0623944E-1,5.920058E-1,4.6591446E-1,2.2844827E-1,4.3662536E-1,7.380936E-1,5E-1,6.6244507E-1,5E-1,5E-1,-2.6891252E-3,-5.213538E-4,-2.331358E-3,-1.757864E-3,-2.3548184E-3,-1.0068949E-3,-1.9633563E-3,-1.1987082E-3,-9.2254643E-4,-2.04652E-3,-1.8080914E-3,-1.0393565E-3,-1.6016663E-3,-4.6338307E-4,-1.2136253E-3,-7.968283E-4,-1.6314012E-3,-1.1178207E-3,-1.0198157E-3,-1.3694745E-3,-1.1932808E-3,-7.7154033E-4,-5.2845926E-4,3.597892E-4,-7.533986E-4,-5.0186337E-4,-3.3914234E-4,3.88315E-5,9.71101E-5,7.310247E-4,8.0237223E-4,1.6255227E-3],"split_indices":[0,0,5,5,5,0,4,0,0,4,5,5,4,0,0,1,1,5,5,6,1,1,5,1,11,5,0,4,0,2,2,0,0,0,0,0,0,0,0,0,0,0,0,0,0,0,0,0,0,0,0,0,0,0,0,0,0,0,0,0,0,0,0],"split_type":[0,0,0,0,0,0,0,0,0,0,0,0,0,0,0,0,0,0,0,0,0,0,0,0,0,0,0,0,0,0,0,0,0,0,0,0,0,0,0,0,0,0,0,0,0,0,0,0,0,0,0,0,0,0,0,0,0,0,0,0,0,0,0],"sum_hessian":[3.514E3,2.433E3,1.081E3,1.395E3,1.038E3,9.59E2,1.22E2,8.73E2,5.22E2,6.91E2,3.47E2,6.33E2,3.26E2,8.3E1,3.9E1,2.96E2,5.77E2,1.63E2,3.59E2,3.9E2,3.01E2,3.01E2,4.6E1,4.01E2,2.32E2,2.5E2,7.6E1,3.1E1,5.2E1,1.8E1,2.1E1,2.94E2,2E0,5.41E2,3.6E1,1.59E2,4E0,3.42E2,1.7E1,3E0,3.87E2,2.91E2,1E1,2.96E2,5E0,2.8E1,1.8E1,3.4E2,6.1E1,1.19E2,1.13E2,1.43E2,1.07E2,6.7E1,9E0,1.5E1,1.6E1,4.4E1,8E0,1.7E1,1E0,1.9E1,2E0],"tree_param":{"num_deleted":"0","num_feature":"12","num_nodes":"63","size_leaf_vector":"0"}},{"base_weights":[-1.7658104E-1,-2.0998247E-1,-1.17806904E-1,-2.380108E-1,-1.913973E-1,-1.4282759E-1,-6.7724034E-2,-2.5180158E-1,-2.1489358E-1,-2.049586E-1,-1.6482909E-1,-1.5688111E-1,-1.0032793E-1,-9.152024E-2,4.297541E-3,-2.5427407E-1,-1.6446245E-1,-2.1942368E-1,-1.3964516E-1,-2.1899931E-1,-1.9302121E-1,-1.6889709E-1,-9.5742874E-2,-1.6241334E-1,-7.250002E-2,-1.271342E-1,-8.237332E-2,-1.0503472E-1,-4.733106E-2,-2.1238169E-2,8.466795E-2,-2.6760614E-1,-2.376995E-1,-1.7706726E-1,-7.6078825E-2,-2.4039346E-1,-2.0652689E-1,-2.211373E-1,-1.3108642E-1,-1.939283E-1,-1.0272708E-1,-1.7841966E-1,-1.4882559E-1,-1.0757319E-1,-5.2720435E-2,-1.7870153E-1,-1.5448943E-1,-1.0488313E-1,-5.1824223E-2,-1.323158E-1,-8.865661E-2,-8.4483944E-2,-2.4321243E-2,-1.1687692E-1,-7.249138E-2,-5.7027392E-2,4.3428212E-2,-3.394287E-2,1.9843552E-2,5.4819085E-2,1.2694423E-1],"categories":[],"categories_nodes":[],"categories_segments":[],"categories_sizes":[],"default_left":[true,true,true,true,true,true,true,true,true,true,true,true,true,true,true,true,true,true,false,true,true,true,true,true,true,true,true,true,true,true,true,false,false,false,false,false,false,false,false,false,false,false,false,false,false,false,false,false,false,false,false,false,false,false,false,false,false,false,false,false,false],"id":12,"left_children":[1,3,5,7,9,11,13,15,17,19,21,23,25,27,29,31,33,35,-1,37,39,41,43,45,47,49,51,53,55,57,59,-1,-1,-1,-1,-1,-1,-1,-1,-1,-1,-1,-1,-1,-1,-1,-1,-1,-1,-1,-1,-1,-1,-1,-1,-1,-1,-1,-1,-1,-1],"loss_changes":[6.875702E0,1.1212845E0,1.5892925E0,2.2930527E-1,4.5334244E-1,4.9193954E-1,7.322035E-1,7.716751E-2,8.491802E-2,1.0706711E-1,1.136713E-1,2.855873E-1,9.252477E-2,1.8672776E-1,2.2139595E-1,5.4389954E-2,6.581992E-3,3.635311E-2,0E0,4.6569824E-2,2.0212173E-2,5.6589127E-2,8.57982E-3,4.9445152E-2,2.2015914E-2,5.0168037E-3,1.3996184E-2,8.59468E-2,7.023905E-2,4.347189E-2,2.58504E-2,0E0,0E0,0E0,0E0,0E0,0E0,0E0,0E0,0E0,0E0,0E0,0E0,0E0,0E0,0E0,0E0,0E0,0E0,0E0,0E0,0E0,0E0,0E0,0E0,0E0,0E0,0E0,0E0,0E0,0E0],"parents":[2147483647,0,0,1,1,2,2,3,3,4,4,5,5,6,6,7,7,8,8,9,9,10,10,11,11,12,12,13,13,14,14,15,15,16,16,17,17,19,19,20,20,21,21,22,22,23,23,24,24,25,25,26,26,27,27,28,28,29,29,30,30],"right_children":[2,4,6,8,10,12,14,16,18,20,22,24,26,28,30,32,34,36,-1,38,40,42,44,46,48,50,52,54,56,58,60,-1,-1,-1,-1,-1,-1,-1,-1,-1,-1,-1,-1,-1,-1,-1,-1,-1,-1,-1,-1,-1,-1,-1,-1,-1,-1,-1,-1,-1,-1],"split_conditions":[4.9691278E-1,3.8775504E-1,5E-1,3.801673E-1,4.1306096E-1,4.9823067E-1,5.626508E-1,5.8333224E-1,5.7310605E-1,4.4057164E-1,5.841242E-1,6.0487044E-1,3.888889E-1,6.290319E-1,7.222222E-1,3.3834058E-1,6.9689775E-1,2.777778E-1,-1.3964516E-3,5.567229E-1,6.821737E-1,3.888889E-1,2.8696012E-1,3.888889E-1,5.528095E-1,5.847746E-1,6.521925E-1,4.6557826E-1,7.6981306E-1,6.1111116E-1,5.9868103E-1,-2.6760614E-3,-2.3769948E-3,-1.7706726E-3,-7.607882E-4,-2.4039345E-3,-2.0652688E-3,-2.211373E-3,-1.3108642E-3,-1.939283E-3,-1.0272708E-3,-1.7841966E-3,-1.4882558E-3,-1.0757318E-3,-5.2720436E-4,-1.7870154E-3,-1.5448943E-3,-1.0488313E-3,-5.1824225E-4,-1.3231579E-3,-8.865661E-4,-8.4483944E-4,-2.4321243E-4,-1.1687692E-3,-7.249138E-4,-5.702739E-4,4.3428212E-4,-3.394287E-4,1.9843552E-4,5.4819084E-4,1.2694423E-3],"split_indices":[0,0,4,5,5,5,5,1,5,0,5,1,4,0,4,0,1,4,0,1,1,4,6,4,0,0,1,5,0,4,5,0,0,0,0,0,0,0,0,0,0,0,0,0,0,0,0,0,0,0,0,0,0,0,0,0,0,0,0,0,0],"split_type":[0,0,0,0,0,0,0,0,0,0,0,0,0,0,0,0,0,0,0,0,0,0,0,0,0,0,0,0,0,0,0,0,0,0,0,0,0,0,0,0,0,0,0,0,0,0,0,0,0,0,0,0,0,0,0,0,0,0,0,0,0],"sum_hessian":[3.514E3,2.239E3,1.275E3,8.88E2,1.351E3,8.49E2,4.26E2,5.5E2,3.38E2,8.9E2,4.61E2,6.36E2,2.13E2,3.2E2,1.06E2,5.33E2,1.7E1,3.17E2,2.1E1,4.01E2,4.89E2,4.34E2,2.7E1,5.96E2,4E1,8.3E1,1.3E2,2.44E2,7.6E1,8.1E1,2.5E1,2.87E2,2.46E2,1.4E1,3E0,1.14E2,2.03E2,3.9E2,1.1E1,4.83E2,6E0,2.89E2,1.45E2,2E1,7E0,1.88E2,4.08E2,1.4E1,2.6E1,7.1E1,1.2E1,1.25E2,5E0,1.77E2,6.7E1,6.9E1,7E0,6.2E1,1.9E1,1.6E1,9E0],"tree_param":{"num_deleted":"0","num_feature":"12","num_nodes":"61","size_leaf_vector":"0"}},{"base_weights":[-1.7482471E-1,-2.0503435E-1,-1.1113156E-1,-2.3280494E-1,-1.8482073E-1,-1.2351481E-1,-9.371718E-3,-2.4640667E-1,-2.1034381E-1,-1.986839E-1,-1.5752612E-1,-1.4227746E-1,-8.8037245E-2,-4.156111E-2,5.9265036E-2,-2.4860297E-1,-1.4837036E-1,-2.3578724E-1,-1.9730237E-1,-2.082166E-1,-1.8042505E-1,-1.6145718E-1,-9.204388E-2,-1.5562548E-1,-1.193827E-1,-1.00996666E-1,-4.271276E-2,-6.3038796E-2,-2.740404E-2,1.6507937E-2,9.349775E-2,-2.6496E-1,-2.3265365E-1,-5.1280607E-2,-1.5857743E-1,-6.488986E-2,-2.3664214E-1,-2.0202683E-1,-1.2674345E-1,-2.1022247E-1,-1.5830702E-1,-1.813805E-1,-5.936014E-2,-1.6419649E-1,-9.531084E-2,-5.228641E-2,-1.0014206E-1,-1.6252059E-1,-1.13968946E-1,-1.2651737E-1,-8.63305E-2,-7.859489E-2,-1.1805298E-1,-5.3122148E-2,3.546519E-2,-6.4200275E-2,-1.2935817E-2,-3.3105947E-2,4.1503906E-3,9.354184E-3,7.263774E-2,7.875419E-2,1.6062228E-1],"categories":[],"categories_nodes":[],"categories_segments":[],"categories_sizes":[],"default_left":[true,true,true,true,true,true,true,true,true,true,true,true,true,true,true,true,true,true,true,true,true,true,true,true,true,true,true,true,true,true,true,false,false,false,false,false,false,false,false,false,false,false,false,false,false,false,false,false,false,false,false,false,false,false,false,false,false,false,false,false,false,false,false],"id":13,"left_children":[1,3,5,7,9,11,13,15,17,19,21,23,25,27,29,31,33,35,37,39,41,43,45,47,49,51,53,55,57,59,61,-1,-1,-1,-1,-1,-1,-1,-1,-1,-1,-1,-1,-1,-1,-1,-1,-1,-1,-1,-1,-1,-1,-1,-1,-1,-1,-1,-1,-1,-1,-1,-1],"loss_changes":[6.740593E0,1.2946548E0,1.4265566E0,2.5368118E-1,4.923935E-1,6.5978336E-1,2.764257E-1,9.5962524E-2,8.089638E-2,1.2151718E-1,1.0638142E-1,1.8281174E-1,2.0244336E-1,2.4117693E-2,5.7004213E-2,9.540939E-2,7.7240765E-3,2.9072762E-3,6.1065674E-2,2.618599E-2,2.6363373E-2,6.462002E-2,4.100874E-3,1.00102425E-1,4.732442E-2,9.503269E-2,6.698677E-2,1.0898858E-3,9.673186E-3,6.9497684E-3,9.122714E-3,0E0,0E0,0E0,0E0,0E0,0E0,0E0,0E0,0E0,0E0,0E0,0E0,0E0,0E0,0E0,0E0,0E0,0E0,0E0,0E0,0E0,0E0,0E0,0E0,0E0,0E0,0E0,0E0,0E0,0E0,0E0,0E0],"parents":[2147483647,0,0,1,1,2,2,3,3,4,4,5,5,6,6,7,7,8,8,9,9,10,10,11,11,12,12,13,13,14,14,15,15,16,16,17,17,18,18,19,19,20,20,21,21,22,22,23,23,24,24,25,25,26,26,27,27,28,28,29,29,30,30],"right_children":[2,4,6,8,10,12,14,16,18,20,22,24,26,28,30,32,34,36,38,40,42,44,46,48,50,52,54,56,58,60,62,-1,-1,-1,-1,-1,-1,-1,-1,-1,-1,-1,-1,-1,-1,-1,-1,-1,-1,-1,-1,-1,-1,-1,-1,-1,-1,-1,-1,-1,-1,-1,-1],"split_conditions":[5.08176E-1,3.9937747E-1,5.737494E-1,3.801673E-1,4.1306096E-1,5.814818E-1,6.1111116E-1,6.098293E-1,2.777778E-1,3.888889E-1,5.858935E-1,4.1788644E-1,6.1111116E-1,5.568849E-1,6.553916E-1,3.3834058E-1,2.6360846E-1,1.8965518E-1,5.7310605E-1,5.307026E-1,7.080843E-1,5.665008E-1,2.2844827E-1,4.6591446E-1,5E-1,8.333334E-1,7.380936E-1,3.75E-1,6.6244507E-1,5E-1,5E-1,-2.6496E-3,-2.3265365E-3,-5.1280606E-4,-1.5857742E-3,-6.488986E-4,-2.3664213E-3,-2.0202682E-3,-1.2674344E-3,-2.1022246E-3,-1.5830701E-3,-1.813805E-3,-5.936014E-4,-1.6419649E-3,-9.5310836E-4,-5.2286405E-4,-1.0014205E-3,-1.6252059E-3,-1.1396895E-3,-1.2651737E-3,-8.63305E-4,-7.8594894E-4,-1.1805298E-3,-5.3122145E-4,3.546519E-4,-6.4200273E-4,-1.2935817E-4,-3.3105948E-4,4.1503907E-5,9.354184E-5,7.2637736E-4,7.8754185E-4,1.6062228E-3],"split_indices":[0,0,5,5,5,0,4,1,4,4,5,5,4,0,0,0,0,11,5,1,1,1,11,1,4,7,0,3,0,2,2,0,0,0,0,0,0,0,0,0,0,0,0,0,0,0,0,0,0,0,0,0,0,0,0,0,0,0,0,0,0,0,0],"split_type":[0,0,0,0,0,0,0,0,0,0,0,0,0,0,0,0,0,0,0,0,0,0,0,0,0,0,0,0,0,0,0,0,0,0,0,0,0,0,0,0,0,0,0,0,0,0,0,0,0,0,0,0,0,0,0,0,0,0,0,0,0,0,0],"sum_hessian":[3.514E3,2.382E3,1.132E3,9.99E2,1.383E3,1.009E3,1.23E2,6.16E2,3.83E2,9.13E2,4.7E2,6.58E2,3.51E2,8.4E1,3.9E1,6.01E2,1.5E1,1.24E2,2.59E2,5.93E2,3.2E2,4.42E2,2.8E1,4.12E2,2.46E2,2.72E2,7.9E1,3.2E1,5.2E1,1.8E1,2.1E1,2.89E2,3.12E2,2E0,1.3E1,1E0,1.23E2,2.41E2,1.8E1,5.67E2,2.6E1,3.17E2,3E0,4.23E2,1.9E1,6E0,2.2E1,3.51E2,6.1E1,2E2,4.6E1,1.2E2,1.52E2,7E1,9E0,3.1E1,1E0,4.4E1,8E0,1.7E1,1E0,1.9E1,2E0],"tree_param":{"num_deleted":"0","num_feature":"12","num_nodes":"63","size_leaf_vector":"0"}},{"base_weights":[-1.7308457E-1,-2.0583679E-1,-1.1545287E-1,-2.3331816E-1,-1.876143E-1,-1.400261E-1,-6.626621E-2,-2.4682692E-1,-2.1067321E-1,-2.0090337E-1,-1.6157931E-1,-1.5383886E-1,-9.825629E-2,-8.9598365E-2,4.3495726E-3,-2.4924496E-1,-1.6137949E-1,-2.1511088E-1,-1.3695249E-1,-2.1474601E-1,-1.8913676E-1,-1.6556315E-1,-9.391674E-2,-1.592935E-1,-7.066173E-2,-1.2463729E-1,-8.059019E-2,-9.8418996E-2,-2.5172977E-2,-2.0746008E-2,8.332988E-2,-2.694027E-1,-2.3840931E-1,-1.7369395E-1,-7.485538E-2,-2.356795E-1,-2.0246138E-1,-2.1684638E-1,-1.2841399E-1,-1.9002397E-1,-1.00772366E-1,-1.7497696E-1,-1.4573048E-1,-1.0555673E-1,-5.1622175E-2,-1.7537528E-1,-1.514726E-1,-1.02683134E-1,-5.025496E-2,-1.300192E-1,-8.844065E-2,-8.267869E-2,-2.3299808E-2,-1.0803138E-1,-6.256808E-2,-3.584541E-2,7.984027E-2,-3.3190973E-2,1.9492932E-2,5.3957947E-2,1.24929175E-1],"categories":[],"categories_nodes":[],"categories_segments":[],"categories_sizes":[],"default_left":[true,true,true,true,true,true,true,true,true,true,true,true,true,true,true,true,true,true,false,true,true,true,true,true,true,true,true,true,true,true,true,false,false,false,false,false,false,false,false,false,false,false,false,false,false,false,false,false,false,false,false,false,false,false,false,false,false,false,false,false,false],"id":14,"left_children":[1,3,5,7,9,11,13,15,17,19,21,23,25,27,29,31,33,35,-1,37,39,41,43,45,47,49,51,53,55,57,59,-1,-1,-1,-1,-1,-1,-1,-1,-1,-1,-1,-1,-1,-1,-1,-1,-1,-1,-1,-1,-1,-1,-1,-1,-1,-1,-1,-1,-1,-1],"loss_changes":[6.6110306E0,1.0779648E0,1.5329933E0,2.1995163E-1,4.3530273E-1,4.7529602E-1,7.0392287E-1,7.361984E-2,8.144379E-2,1.0451126E-1,1.08986855E-1,2.7775288E-1,8.968997E-2,1.7993808E-1,2.1380882E-1,5.2410126E-2,6.177038E-3,3.5021782E-2,0E0,4.504776E-2,1.9266129E-2,5.571556E-2,8.335546E-3,4.8521996E-2,2.163124E-2,4.864812E-3,1.37479305E-2,9.042144E-2,4.7691785E-2,4.1710306E-2,2.5027215E-2,0E0,0E0,0E0,0E0,0E0,0E0,0E0,0E0,0E0,0E0,0E0,0E0,0E0,0E0,0E0,0E0,0E0,0E0,0E0,0E0,0E0,0E0,0E0,0E0,0E0,0E0,0E0,0E0,0E0,0E0],"parents":[2147483647,0,0,1,1,2,2,3,3,4,4,5,5,6,6,7,7,8,8,9,9,10,10,11,11,12,12,13,13,14,14,15,15,16,16,17,17,19,19,20,20,21,21,22,22,23,23,24,24,25,25,26,26,27,27,28,28,29,29,30,30],"right_children":[2,4,6,8,10,12,14,16,18,20,22,24,26,28,30,32,34,36,-1,38,40,42,44,46,48,50,52,54,56,58,60,-1,-1,-1,-1,-1,-1,-1,-1,-1,-1,-1,-1,-1,-1,-1,-1,-1,-1,-1,-1,-1,-1,-1,-1,-1,-1,-1,-1,-1,-1],"split_conditions":[4.9691278E-1,3.8775504E-1,5E-1,3.801673E-1,4.1306096E-1,4.9823067E-1,5.626508E-1,5.8333224E-1,5.7310605E-1,4.4057164E-1,5.841242E-1,6.0487044E-1,3.888889E-1,6.6692203E-1,7.222222E-1,3.0487543E-1,6.9689775E-1,2.777778E-1,-1.3695249E-3,5.567229E-1,6.821737E-1,3.888889E-1,2.8696012E-1,3.888889E-1,5.528095E-1,3.110465E-1,6.521925E-1,4.8455846E-1,7.8846514E-1,6.1111116E-1,5.9868103E-1,-2.694027E-3,-2.3840931E-3,-1.7369395E-3,-7.485538E-4,-2.3567951E-3,-2.0246138E-3,-2.1684638E-3,-1.2841399E-3,-1.9002397E-3,-1.0077236E-3,-1.7497696E-3,-1.4573048E-3,-1.0555673E-3,-5.1622174E-4,-1.7537528E-3,-1.514726E-3,-1.0268313E-3,-5.025496E-4,-1.300192E-3,-8.844065E-4,-8.267869E-4,-2.3299808E-4,-1.0803137E-3,-6.2568084E-4,-3.584541E-4,7.984027E-4,-3.3190972E-4,1.9492931E-4,5.395794E-4,1.2492917E-3],"split_indices":[0,0,4,5,5,5,5,1,5,0,5,1,4,0,4,0,1,4,0,1,1,4,6,4,0,6,1,5,0,4,5,0,0,0,0,0,0,0,0,0,0,0,0,0,0,0,0,0,0,0,0,0,0,0,0,0,0,0,0,0,0],"split_type":[0,0,0,0,0,0,0,0,0,0,0,0,0,0,0,0,0,0,0,0,0,0,0,0,0,0,0,0,0,0,0,0,0,0,0,0,0,0,0,0,0,0,0,0,0,0,0,0,0,0,0,0,0,0,0,0,0,0,0,0,0],"sum_hessian":[3.514E3,2.239E3,1.275E3,8.88E2,1.351E3,8.49E2,4.26E2,5.5E2,3.38E2,8.9E2,4.61E2,6.36E2,2.13E2,3.2E2,1.06E2,5.33E2,1.7E1,3.17E2,2.1E1,4.01E2,4.89E2,4.34E2,2.7E1,5.96E2,4E1,8.3E1,1.3E2,2.81E2,3.9E1,8.1E1,2.5E1,1.78E2,3.55E2,1.4E1,3E0,1.14E2,2.03E2,3.9E2,1.1E1,4.83E2,6E0,2.89E2,1.45E2,2E1,7E0,1.88E2,4.08E2,1.4E1,2.6E1,7E1,1.3E1,1.25E2,5E0,2.2E2,6.1E1,3.6E1,3E0,6.2E1,1.9E1,1.6E1,9E0],"tree_param":{"num_deleted":"0","num_feature":"12","num_nodes":"61","size_leaf_vector":"0"}},{"base_weights":[-1.7136286E-1,-2.000063E-1,-1.06769964E-1,-2.2226033E-1,-1.7488354E-1,-1.1922642E-1,-8.6808195E-3,-2.3517197E-1,-2.0035285E-1,-1.8837413E-1,-1.4690436E-1,-1.3708834E-1,-8.423044E-2,-4.043188E-2,5.8213428E-2,-2.5718606E-1,-2.218386E-1,-2.3100138E-1,-1.8880281E-1,-1.9863708E-1,-1.734465E-1,-1.5280174E-1,-1.0418923E-1,-1.4964265E-1,-1.14839755E-1,-9.7456254E-2,-4.0023796E-2,-6.1942697E-2,-2.6681354E-2,1.6128814E-2,9.191316E-2,-2.5841674E-1,-5.0439704E-2,-2.2519259E-1,-1.7007756E-1,-6.338702E-2,-2.3182206E-1,-1.92683E-1,-1.13787346E-1,-8.754733E-2,-1.9918679E-1,-1.7550266E-1,-9.935871E-2,-1.5543737E-1,-8.220928E-2,-1.1772365E-1,-7.6623105E-2,-1.5693557E-1,-1.0711793E-1,-9.786173E-2,-1.3170399E-1,-1.1448035E-1,-7.385509E-2,-5.0486002E-2,3.512156E-2,-6.313712E-2,-1.2457743E-2,-3.2306414E-2,4.408545E-3,9.005182E-3,7.217708E-2,7.72967E-2,1.5871859E-1],"categories":[],"categories_nodes":[],"categories_segments":[],"categories_sizes":[],"default_left":[true,true,true,true,true,true,true,true,true,true,true,true,true,true,true,true,true,true,true,true,true,true,true,true,true,true,true,true,true,true,true,false,false,false,false,false,false,false,false,false,false,false,false,false,false,false,false,false,false,false,false,false,false,false,false,false,false,false,false,false,false,false,false],"id":15,"left_children":[1,3,5,7,9,11,13,15,17,19,21,23,25,27,29,31,33,35,37,39,41,43,45,47,49,51,53,55,57,59,61,-1,-1,-1,-1,-1,-1,-1,-1,-1,-1,-1,-1,-1,-1,-1,-1,-1,-1,-1,-1,-1,-1,-1,-1,-1,-1,-1,-1,-1,-1,-1,-1],"loss_changes":[6.4819717E0,1.3219376E0,1.3209982E0,3.1692505E-1,4.0564728E-1,5.8854485E-1,2.6360115E-1,1.78936E-1,1.2771797E-1,8.366585E-2,7.930088E-2,1.5990067E-1,1.8728614E-1,2.3193225E-2,5.5247188E-2,6.253624E-2,4.9892426E-2,2.9129982E-3,8.198929E-2,1.0042191E-2,3.1615257E-2,4.861927E-2,9.261131E-3,1.0786247E-1,5.3823948E-2,9.2393875E-2,6.230946E-2,1.1048466E-3,9.411201E-3,6.936108E-3,9.213686E-3,0E0,0E0,0E0,0E0,0E0,0E0,0E0,0E0,0E0,0E0,0E0,0E0,0E0,0E0,0E0,0E0,0E0,0E0,0E0,0E0,0E0,0E0,0E0,0E0,0E0,0E0,0E0,0E0,0E0,0E0,0E0,0E0],"parents":[2147483647,0,0,1,1,2,2,3,3,4,4,5,5,6,6,7,7,8,8,9,9,10,10,11,11,12,12,13,13,14,14,15,15,16,16,17,17,18,18,19,19,20,20,21,21,22,22,23,23,24,24,25,25,26,26,27,27,28,28,29,29,30,30],"right_children":[2,4,6,8,10,12,14,16,18,20,22,24,26,28,30,32,34,36,38,40,42,44,46,48,50,52,54,56,58,60,62,-1,-1,-1,-1,-1,-1,-1,-1,-1,-1,-1,-1,-1,-1,-1,-1,-1,-1,-1,-1,-1,-1,-1,-1,-1,-1,-1,-1,-1,-1,-1,-1],"split_conditions":[5.120721E-1,4.2455912E-1,5.737494E-1,3.7984556E-1,4.3035227E-1,5.8632135E-1,6.1111116E-1,3.3834058E-1,2.777778E-1,3.888889E-1,5.6940645E-1,4.256876E-1,6.1111116E-1,5.568849E-1,6.553916E-1,6.9057286E-1,4.901595E-1,1.8965518E-1,5.841242E-1,8.596346E-2,5.9744334E-1,5.6556565E-1,5.9240794E-1,4.6591446E-1,2.2844827E-1,4.3662536E-1,7.380936E-1,3.75E-1,6.6244507E-1,5E-1,5E-1,-2.5841673E-3,-5.0439703E-4,-2.2519259E-3,-1.7007756E-3,-6.338702E-4,-2.3182204E-3,-1.9268299E-3,-1.1378734E-3,-8.754733E-4,-1.9918678E-3,-1.7550265E-3,-9.935871E-4,-1.5543737E-3,-8.220928E-4,-1.1772364E-3,-7.6623104E-4,-1.5693557E-3,-1.0711793E-3,-9.786172E-4,-1.3170398E-3,-1.1448035E-3,-7.3855085E-4,-5.0486E-4,3.512156E-4,-6.313712E-4,-1.2457743E-4,-3.2306413E-4,4.408545E-5,9.005182E-5,7.217708E-4,7.7296695E-4,1.5871858E-3],"split_indices":[0,0,5,5,5,0,4,0,4,4,5,5,4,0,0,1,1,11,5,6,1,1,5,1,11,5,0,3,0,2,2,0,0,0,0,0,0,0,0,0,0,0,0,0,0,0,0,0,0,0,0,0,0,0,0,0,0,0,0,0,0,0,0],"split_type":[0,0,0,0,0,0,0,0,0,0,0,0,0,0,0,0,0,0,0,0,0,0,0,0,0,0,0,0,0,0,0,0,0,0,0,0,0,0,0,0,0,0,0,0,0,0,0,0,0,0,0,0,0,0,0,0,0,0,0,0,0,0,0],"sum_hessian":[3.514E3,2.433E3,1.081E3,1.286E3,1.147E3,9.59E2,1.22E2,8.03E2,4.83E2,7.7E2,3.77E2,6.33E2,3.26E2,8.3E1,3.9E1,2.96E2,5.07E2,1.27E2,3.56E2,4.49E2,3.21E2,3.29E2,4.8E1,4.01E2,2.32E2,2.5E2,7.6E1,3.1E1,5.2E1,1.8E1,2.1E1,2.94E2,2E0,4.73E2,3.4E1,1E0,1.26E2,3.37E2,1.9E1,3E0,4.46E2,3.11E2,1E1,3.16E2,1.3E1,3E1,1.8E1,3.4E2,6.1E1,1.19E2,1.13E2,1.43E2,1.07E2,6.7E1,9E0,3E1,1E0,4.4E1,8E0,1.7E1,1E0,1.9E1,2E0],"tree_param":{"num_deleted":"0","num_feature":"12","num_nodes":"63","size_leaf_vector":"0"}},{"base_weights":[-1.6965714E-1,-2.0177296E-1,-1.1314532E-1,-2.2874467E-1,-1.8388863E-1,-1.372903E-1,-6.4816564E-2,-2.4197562E-1,-2.0656475E-1,-1.973543E-1,-1.5917394E-1,-1.5084867E-1,-9.6290424E-2,-8.7687925E-2,4.403272E-3,-2.4435018E-1,-1.5808688E-1,-2.1091776E-1,-1.3425465E-1,-2.1079673E-1,-1.8570377E-1,-1.6295104E-1,-9.211104E-2,-1.5622471E-1,-6.888918E-2,-1.22248776E-1,-7.891033E-2,-9.634619E-2,-2.4454948E-2,-2.0258075E-2,8.2012005E-2,-2.754251E-1,-2.3734513E-1,-1.7007317E-1,-7.361657E-2,-2.1940862E-1,-1.8291487E-1,-2.1289676E-1,-1.2567921E-1,-1.8660957E-1,-9.84865E-2,-1.7208937E-1,-1.4302877E-1,-1.0359431E-1,-5.045357E-2,-1.7208941E-1,-1.4851162E-1,-1.0060135E-1,-4.8719857E-2,-1.2755737E-1,-8.659456E-2,-8.098121E-2,-2.2270182E-2,-1.0578407E-1,-6.115072E-2,-3.497595E-2,7.897808E-2,-3.244628E-2,1.9147681E-2,5.310878E-2,1.22946285E-1],"categories":[],"categories_nodes":[],"categories_segments":[],"categories_sizes":[],"default_left":[true,true,true,true,true,true,true,true,true,true,true,true,true,true,true,true,true,true,false,true,true,true,true,true,true,true,true,true,true,true,true,false,false,false,false,false,false,false,false,false,false,false,false,false,false,false,false,false,false,false,false,false,false,false,false,false,false,false,false,false,false],"id":16,"left_children":[1,3,5,7,9,11,13,15,17,19,21,23,25,27,29,31,33,35,-1,37,39,41,43,45,47,49,51,53,55,57,59,-1,-1,-1,-1,-1,-1,-1,-1,-1,-1,-1,-1,-1,-1,-1,-1,-1,-1,-1,-1,-1,-1,-1,-1,-1,-1,-1,-1,-1,-1],"loss_changes":[6.356621E0,1.0384521E0,1.4800625E0,2.1090317E-1,4.185295E-1,4.5798302E-1,6.7639184E-1,7.113266E-2,7.838917E-2,9.726715E-2,1.0708237E-1,2.699108E-1,8.690119E-2,1.7338753E-1,2.0645255E-1,5.0872803E-2,5.704552E-3,3.547764E-2,0E0,4.420662E-2,1.9145966E-2,5.8221817E-2,8.16749E-3,4.7493935E-2,2.1322861E-2,4.8532486E-3,1.3562143E-2,8.72035E-2,4.629111E-2,4.000468E-2,2.423191E-2,0E0,0E0,0E0,0E0,0E0,0E0,0E0,0E0,0E0,0E0,0E0,0E0,0E0,0E0,0E0,0E0,0E0,0E0,0E0,0E0,0E0,0E0,0E0,0E0,0E0,0E0,0E0,0E0,0E0,0E0],"parents":[2147483647,0,0,1,1,2,2,3,3,4,4,5,5,6,6,7,7,8,8,9,9,10,10,11,11,12,12,13,13,14,14,15,15,16,16,17,17,19,19,20,20,21,21,22,22,23,23,24,24,25,25,26,26,27,27,28,28,29,29,30,30],"right_children":[2,4,6,8,10,12,14,16,18,20,22,24,26,28,30,32,34,36,-1,38,40,42,44,46,48,50,52,54,56,58,60,-1,-1,-1,-1,-1,-1,-1,-1,-1,-1,-1,-1,-1,-1,-1,-1,-1,-1,-1,-1,-1,-1,-1,-1,-1,-1,-1,-1,-1,-1],"split_conditions":[4.9691278E-1,3.8775504E-1,5E-1,3.801673E-1,4.0292746E-1,4.9823067E-1,5.626508E-1,5.8333224E-1,5.7310605E-1,4.4057164E-1,5.841242E-1,6.0487044E-1,3.888889E-1,6.6692203E-1,7.222222E-1,2.7591777E-1,6.9689775E-1,2.9609632E-1,-1.3425464E-3,5.567229E-1,6.821737E-1,3.888889E-1,2.8696012E-1,3.888889E-1,5.528095E-1,3.110465E-1,6.521925E-1,4.8455846E-1,7.8846514E-1,6.1111116E-1,5.9868103E-1,-2.754251E-3,-2.3734511E-3,-1.7007316E-3,-7.361657E-4,-2.194086E-3,-1.8291486E-3,-2.1289675E-3,-1.2567921E-3,-1.8660956E-3,-9.84865E-4,-1.7208937E-3,-1.4302876E-3,-1.035943E-3,-5.045357E-4,-1.7208941E-3,-1.4851162E-3,-1.0060135E-3,-4.8719856E-4,-1.2755736E-3,-8.659456E-4,-8.098121E-4,-2.2270181E-4,-1.0578408E-3,-6.1150716E-4,-3.497595E-4,7.8978075E-4,-3.244628E-4,1.914768E-4,5.310878E-4,1.2294628E-3],"split_indices":[0,0,4,5,5,5,5,1,5,0,5,1,4,0,4,0,1,6,0,1,1,4,6,4,0,6,1,5,0,4,5,0,0,0,0,0,0,0,0,0,0,0,0,0,0,0,0,0,0,0,0,0,0,0,0,0,0,0,0,0,0],"split_type":[0,0,0,0,0,0,0,0,0,0,0,0,0,0,0,0,0,0,0,0,0,0,0,0,0,0,0,0,0,0,0,0,0,0,0,0,0,0,0,0,0,0,0,0,0,0,0,0,0,0,0,0,0,0,0,0,0,0,0,0,0],"sum_hessian":[3.514E3,2.239E3,1.275E3,8.88E2,1.351E3,8.49E2,4.26E2,5.5E2,3.38E2,8.7E2,4.81E2,6.36E2,2.13E2,3.2E2,1.06E2,5.33E2,1.7E1,3.17E2,2.1E1,3.96E2,4.74E2,4.54E2,2.7E1,5.96E2,4E1,8.3E1,1.3E2,2.81E2,3.9E1,8.1E1,2.5E1,9.1E1,4.42E2,1.4E1,3E0,2.38E2,7.9E1,3.85E2,1.1E1,4.68E2,6E0,3.06E2,1.48E2,2E1,7E0,1.88E2,4.08E2,1.4E1,2.6E1,7E1,1.3E1,1.25E2,5E0,2.2E2,6.1E1,3.6E1,3E0,6.2E1,1.9E1,1.6E1,9E0],"tree_param":{"num_deleted":"0","num_feature":"12","num_nodes":"61","size_leaf_vector":"0"}},{"base_weights":[-1.679695E-1,-1.960559E-1,-1.0463279E-1,-2.159891E-1,-1.6908498E-1,-1.1685244E-1,-8.409228E-3,-2.2888239E-1,-1.9402978E-1,-1.8199387E-1,-1.4292972E-1,-1.3545789E-1,-8.433092E-2,-3.9542083E-2,5.718E-2,-2.5216934E-1,-2.1652061E-1,-2.1981771E-1,-1.8174298E-1,-1.9231321E-1,-1.6803077E-1,-1.4905667E-1,-1.0051973E-1,-1.4788559E-1,-1.1328311E-1,-9.682799E-2,-4.0630527E-2,-6.0775958E-2,-2.5975553E-2,1.5757369E-2,9.0354994E-2,-2.547025E-1,-1.288213E-1,-2.1964185E-1,-1.6494672E-1,-2.2235464E-1,-9.46729E-2,-1.8481691E-1,-1.13070674E-1,-8.564348E-2,-1.9291724E-1,-1.7012109E-1,-9.726689E-2,-1.5073468E-1,-4.11526E-2,-1.1367065E-1,-7.515677E-2,-1.5464257E-1,-1.0689093E-1,-9.689124E-2,-1.2953798E-1,-7.5234026E-2,-1.13272704E-1,-5.0679244E-2,3.4778416E-2,-6.196289E-2,-1.1990547E-2,-3.0263761E-2,1.2659366E-2,8.663837E-3,7.172048E-2,7.5864375E-2,1.568408E-1],"categories":[],"categories_nodes":[],"categories_segments":[],"categories_sizes":[],"default_left":[true,true,true,true,true,true,true,true,true,true,true,true,true,true,true,true,true,true,true,true,true,true,true,true,true,true,true,true,true,true,true,false,false,false,false,false,false,false,false,false,false,false,false,false,false,false,false,false,false,false,false,false,false,false,false,false,false,false,false,false,false,false,false],"id":17,"left_children":[1,3,5,7,9,11,13,15,17,19,21,23,25,27,29,31,33,35,37,39,41,43,45,47,49,51,53,55,57,59,61,-1,-1,-1,-1,-1,-1,-1,-1,-1,-1,-1,-1,-1,-1,-1,-1,-1,-1,-1,-1,-1,-1,-1,-1,-1,-1,-1,-1,-1,-1,-1,-1],"loss_changes":[6.2323227E0,1.272049E0,1.2712526E0,3.508377E-1,3.2479095E-1,5.694504E-1,2.5342456E-1,1.9699478E-1,1.2576103E-1,6.7396164E-2,7.544279E-2,1.5107632E-1,1.8830252E-1,2.2619188E-2,5.3544074E-2,5.998993E-2,5.6812286E-2,3.1015873E-2,5.5096626E-2,8.670807E-3,2.812481E-2,4.8478603E-2,7.1335435E-3,9.066868E-2,4.6866655E-2,8.84223E-2,6.2383592E-2,1.1099875E-3,9.163871E-3,6.9211726E-3,9.296626E-3,0E0,0E0,0E0,0E0,0E0,0E0,0E0,0E0,0E0,0E0,0E0,0E0,0E0,0E0,0E0,0E0,0E0,0E0,0E0,0E0,0E0,0E0,0E0,0E0,0E0,0E0,0E0,0E0,0E0,0E0,0E0,0E0],"parents":[2147483647,0,0,1,1,2,2,3,3,4,4,5,5,6,6,7,7,8,8,9,9,10,10,11,11,12,12,13,13,14,14,15,15,16,16,17,17,18,18,19,19,20,20,21,21,22,22,23,23,24,24,25,25,26,26,27,27,28,28,29,29,30,30],"right_children":[2,4,6,8,10,12,14,16,18,20,22,24,26,28,30,32,34,36,38,40,42,44,46,48,50,52,54,56,58,60,62,-1,-1,-1,-1,-1,-1,-1,-1,-1,-1,-1,-1,-1,-1,-1,-1,-1,-1,-1,-1,-1,-1,-1,-1,-1,-1,-1,-1,-1,-1,-1,-1],"split_conditions":[5.120721E-1,4.3305612E-1,5.737494E-1,3.7984556E-1,4.3035227E-1,5.814818E-1,6.1111116E-1,3.3834058E-1,3.288216E-1,3.888889E-1,5.6940645E-1,4.256876E-1,6.1111116E-1,5.568849E-1,6.553916E-1,6.098293E-1,4.901595E-1,5.9683126E-1,5.841242E-1,8.596346E-2,5.9744334E-1,6.0623944E-1,5.920058E-1,4.6591446E-1,2.2844827E-1,8.333334E-1,7.380936E-1,3.75E-1,6.845484E-1,5E-1,5E-1,-2.547025E-3,-1.288213E-3,-2.1964184E-3,-1.6494672E-3,-2.2235464E-3,-9.4672904E-4,-1.848169E-3,-1.1307067E-3,-8.5643475E-4,-1.9291724E-3,-1.7012109E-3,-9.726689E-4,-1.5073468E-3,-4.1152598E-4,-1.1367064E-3,-7.515677E-4,-1.5464256E-3,-1.0689093E-3,-9.689124E-4,-1.2953798E-3,-7.5234025E-4,-1.132727E-3,-5.0679245E-4,3.4778417E-4,-6.196289E-4,-1.1990547E-4,-3.026376E-4,1.2659366E-4,8.663836E-5,7.172048E-4,7.586437E-4,1.568408E-3],"split_indices":[0,0,5,5,5,0,4,0,0,4,5,5,4,0,0,1,1,5,5,6,1,1,5,1,11,7,0,3,0,2,2,0,0,0,0,0,0,0,0,0,0,0,0,0,0,0,0,0,0,0,0,0,0,0,0,0,0,0,0,0,0,0,0],"split_type":[0,0,0,0,0,0,0,0,0,0,0,0,0,0,0,0,0,0,0,0,0,0,0,0,0,0,0,0,0,0,0,0,0,0,0,0,0,0,0,0,0,0,0,0,0,0,0,0,0,0,0,0,0,0,0,0,0,0,0,0,0,0,0],"sum_hessian":[3.514E3,2.433E3,1.081E3,1.395E3,1.038E3,9.59E2,1.22E2,8.73E2,5.22E2,6.91E2,3.47E2,6.08E2,3.51E2,8.3E1,3.9E1,2.96E2,5.77E2,1.63E2,3.59E2,3.9E2,3.01E2,3.01E2,4.6E1,3.86E2,2.22E2,2.72E2,7.9E1,3.1E1,5.2E1,1.8E1,2.1E1,2.89E2,7E0,5.41E2,3.6E1,1.59E2,4E0,3.42E2,1.7E1,3E0,3.87E2,2.91E2,1E1,2.96E2,5E0,2.8E1,1.8E1,3.29E2,5.7E1,1.14E2,1.08E2,1.2E2,1.52E2,7E1,9E0,3E1,1E0,4.7E1,5E0,1.7E1,1E0,1.9E1,2E0],"tree_param":{"num_deleted":"0","num_feature":"12","num_nodes":"63","size_leaf_vector":"0"}},{"base_weights":[-1.662977E-1,-1.9778764E-1,-1.1088723E-1,-2.2426192E-1,-1.8023334E-1,-1.3461229E-1,-6.339968E-2,-2.3722664E-1,-2.0252796E-1,-1.9343534E-1,-1.560027E-1,-1.4792316E-1,-9.436165E-2,-8.582142E-2,4.4580465E-3,-2.3954988E-1,-1.5512432E-1,-2.0679474E-1,-1.3164781E-1,-2.0658793E-1,-1.8203531E-1,-1.5970044E-1,-9.0342924E-2,-1.532221E-1,-6.7157656E-2,-1.1990926E-1,-7.725965E-2,-9.860781E-2,-4.4022884E-2,-1.9776063E-2,8.0717236E-2,-2.7018148E-1,-2.3264772E-1,-1.6694707E-1,-7.200797E-2,-2.1518695E-1,-1.7913806E-1,-2.0864931E-1,-1.2306467E-1,-1.8292737E-1,-9.626204E-2,-1.687155E-1,-1.4005393E-1,-1.0167357E-1,-4.9307108E-2,-1.6887066E-1,-1.4561623E-1,-9.855421E-2,-4.722781E-2,-1.2514193E-1,-8.480713E-2,-7.931308E-2,-2.1261066E-2,-1.0782274E-1,-6.1440766E-2,-5.3212013E-2,4.188484E-2,-3.1711858E-2,1.8810488E-2,5.227635E-2,1.2099503E-1],"categories":[],"categories_nodes":[],"categories_segments":[],"categories_sizes":[],"default_left":[true,true,true,true,true,true,true,true,true,true,true,true,true,true,true,true,true,true,false,true,true,true,true,true,true,true,true,true,true,true,true,false,false,false,false,false,false,false,false,false,false,false,false,false,false,false,false,false,false,false,false,false,false,false,false,false,false,false,false,false,false],"id":18,"left_children":[1,3,5,7,9,11,13,15,17,19,21,23,25,27,29,31,33,35,-1,37,39,41,43,45,47,49,51,53,55,57,59,-1,-1,-1,-1,-1,-1,-1,-1,-1,-1,-1,-1,-1,-1,-1,-1,-1,-1,-1,-1,-1,-1,-1,-1,-1,-1,-1,-1,-1,-1],"loss_changes":[6.11129E0,1.0005951E0,1.4290638E0,2.0245361E-1,4.0232086E-1,4.4144726E-1,6.5005803E-1,6.793976E-2,7.529926E-2,9.2990875E-2,1.0259819E-1,2.623272E-1,8.423567E-2,1.6721821E-1,1.9934013E-1,5.0043106E-2,5.6664348E-3,3.52602E-2,0E0,4.2676926E-2,1.873684E-2,5.69582E-2,8.005723E-3,4.6465874E-2,2.100037E-2,4.8160553E-3,1.3377249E-2,7.728577E-2,6.301388E-2,3.8362525E-2,2.3458764E-2,0E0,0E0,0E0,0E0,0E0,0E0,0E0,0E0,0E0,0E0,0E0,0E0,0E0,0E0,0E0,0E0,0E0,0E0,0E0,0E0,0E0,0E0,0E0,0E0,0E0,0E0,0E0,0E0,0E0,0E0],"parents":[2147483647,0,0,1,1,2,2,3,3,4,4,5,5,6,6,7,7,8,8,9,9,10,10,11,11,12,12,13,13,14,14,15,15,16,16,17,17,19,19,20,20,21,21,22,22,23,23,24,24,25,25,26,26,27,27,28,28,29,29,30,30],"right_children":[2,4,6,8,10,12,14,16,18,20,22,24,26,28,30,32,34,36,-1,38,40,42,44,46,48,50,52,54,56,58,60,-1,-1,-1,-1,-1,-1,-1,-1,-1,-1,-1,-1,-1,-1,-1,-1,-1,-1,-1,-1,-1,-1,-1,-1,-1,-1,-1,-1,-1,-1],"split_conditions":[4.9691278E-1,3.8775504E-1,5E-1,3.801673E-1,4.0292746E-1,4.9823067E-1,5.626508E-1,5.8333224E-1,5.7310605E-1,4.4057164E-1,5.841242E-1,6.0487044E-1,3.888889E-1,6.290319E-1,7.222222E-1,2.7591777E-1,6.9689775E-1,2.9609632E-1,-1.3164781E-3,5.567229E-1,6.821737E-1,3.888889E-1,2.8696012E-1,3.888889E-1,5.528095E-1,3.110465E-1,6.521925E-1,4.8455846E-1,7.6981306E-1,6.1111116E-1,5.9868103E-1,-2.7018148E-3,-2.326477E-3,-1.6694707E-3,-7.200797E-4,-2.1518695E-3,-1.7913806E-3,-2.086493E-3,-1.2306466E-3,-1.8292736E-3,-9.6262037E-4,-1.687155E-3,-1.4005393E-3,-1.0167357E-3,-4.9307104E-4,-1.6887066E-3,-1.4561623E-3,-9.855421E-4,-4.722781E-4,-1.2514193E-3,-8.4807124E-4,-7.931308E-4,-2.1261066E-4,-1.0782274E-3,-6.1440765E-4,-5.321201E-4,4.188484E-4,-3.1711857E-4,1.8810488E-4,5.2276347E-4,1.2099503E-3],"split_indices":[0,0,4,5,5,5,5,1,5,0,5,1,4,0,4,0,1,6,0,1,1,4,6,4,0,6,1,5,0,4,5,0,0,0,0,0,0,0,0,0,0,0,0,0,0,0,0,0,0,0,0,0,0,0,0,0,0,0,0,0,0],"split_type":[0,0,0,0,0,0,0,0,0,0,0,0,0,0,0,0,0,0,0,0,0,0,0,0,0,0,0,0,0,0,0,0,0,0,0,0,0,0,0,0,0,0,0,0,0,0,0,0,0,0,0,0,0,0,0,0,0,0,0,0,0],"sum_hessian":[3.514E3,2.239E3,1.275E3,8.88E2,1.351E3,8.49E2,4.26E2,5.5E2,3.38E2,8.7E2,4.81E2,6.36E2,2.13E2,3.2E2,1.06E2,5.33E2,1.7E1,3.17E2,2.1E1,3.96E2,4.74E2,4.54E2,2.7E1,5.96E2,4E1,8.3E1,1.3E2,2.44E2,7.6E1,8.1E1,2.5E1,9.1E1,4.42E2,1.4E1,3E0,2.38E2,7.9E1,3.85E2,1.1E1,4.68E2,6E0,3.06E2,1.48E2,2E1,7E0,1.88E2,4.08E2,1.4E1,2.6E1,7E1,1.3E1,1.25E2,5E0,1.94E2,5E1,6.9E1,7E0,6.2E1,1.9E1,1.6E1,9E0],"tree_param":{"num_deleted":"0","num_feature":"12","num_nodes":"61","size_leaf_vector":"0"}},{"base_weights":[-1.6464363E-1,-1.9218354E-1,-1.0253941E-1,-2.1358457E-1,-1.6802384E-1,-1.1452698E-1,-8.144237E-3,-2.4171156E-1,-2.0414338E-1,-1.8102781E-1,-1.4105538E-1,-1.3180187E-1,-8.068354E-2,-3.867042E-2,5.6164354E-2,-2.5815308E-1,-2.2181822E-1,-2.148971E-1,-1.7363349E-1,-1.9099322E-1,-1.665388E-1,-1.4671785E-1,-1.0004161E-1,-1.4390652E-1,-1.1035176E-1,-9.341299E-2,-3.8141005E-2,-5.963233E-2,-2.5284542E-2,1.5393408E-2,8.88227E-2,-8.770829E-2,-2.2394405E-1,-2.1750894E-1,-1.3431886E-1,-1.782866E-1,-1.09347254E-1,-8.377886E-2,-1.9152534E-1,-1.6851966E-1,-9.521462E-2,-1.6174553E-1,-1.3264963E-1,-1.1294766E-1,-7.371904E-2,-1.5098144E-1,-1.0267341E-1,-9.400858E-2,-1.2658712E-1,-1.09833926E-1,-7.065347E-2,-4.8230056E-2,3.427863E-2,-6.0811825E-2,-1.1534035E-2,-3.0773614E-2,4.9702097E-3,8.329951E-3,7.126781E-2,1.1331176E-1,5.8972508E-2],"categories":[],"categories_nodes":[],"categories_segments":[],"categories_sizes":[],"default_left":[true,true,true,true,true,true,true,true,true,true,true,true,true,true,true,false,true,true,true,true,true,true,true,true,true,true,true,true,true,true,true,false,false,false,false,false,false,false,false,false,false,false,false,false,false,false,false,false,false,false,false,false,false,false,false,false,false,false,false,false,false],"id":19,"left_children":[1,3,5,7,9,11,13,15,17,19,21,23,25,27,29,-1,31,33,35,37,39,41,43,45,47,49,51,53,55,57,59,-1,-1,-1,-1,-1,-1,-1,-1,-1,-1,-1,-1,-1,-1,-1,-1,-1,-1,-1,-1,-1,-1,-1,-1,-1,-1,-1,-1,-1,-1],"loss_changes":[5.9921494E0,1.2225952E0,1.2234249E0,2.9242325E-1,3.7706375E-1,5.50622E-1,2.436327E-1,4.6747208E-2,2.809372E-1,7.951546E-2,7.310867E-2,1.4873505E-1,1.7352176E-1,2.2062093E-2,5.1893175E-2,0E0,2.340746E-2,1.2084198E-1,5.768013E-2,9.628296E-3,2.9447556E-2,4.8311234E-2,8.319885E-3,1.017704E-1,4.992342E-2,8.6046696E-2,5.7912953E-2,1.1140034E-3,8.954685E-3,6.9050053E-3,9.3998015E-3,0E0,0E0,0E0,0E0,0E0,0E0,0E0,0E0,0E0,0E0,0E0,0E0,0E0,0E0,0E0,0E0,0E0,0E0,0E0,0E0,0E0,0E0,0E0,0E0,0E0,0E0,0E0,0E0,0E0,0E0],"parents":[2147483647,0,0,1,1,2,2,3,3,4,4,5,5,6,6,7,7,8,8,9,9,10,10,11,11,12,12,13,13,14,14,16,16,17,17,18,18,19,19,20,20,21,21,22,22,23,23,24,24,25,25,26,26,27,27,28,28,29,29,30,30],"right_children":[2,4,6,8,10,12,14,16,18,20,22,24,26,28,30,-1,32,34,36,38,40,42,44,46,48,50,52,54,56,58,60,-1,-1,-1,-1,-1,-1,-1,-1,-1,-1,-1,-1,-1,-1,-1,-1,-1,-1,-1,-1,-1,-1,-1,-1,-1,-1,-1,-1,-1,-1],"split_conditions":[5.120721E-1,4.2455912E-1,5.737494E-1,2.777778E-1,4.3035227E-1,5.8632135E-1,6.1111116E-1,3.4944507E-1,4.474827E-1,3.888889E-1,5.6940645E-1,4.256876E-1,6.1111116E-1,5.568849E-1,6.553916E-1,-2.5815307E-3,6.395349E-2,5.5948937E-1,5.841242E-1,8.596346E-2,5.9744334E-1,2.9360467E-1,5.9240794E-1,4.6591446E-1,2.2844827E-1,4.3662536E-1,7.380936E-1,3.75E-1,6.6244507E-1,5E-1,9.913793E-2,-8.770829E-4,-2.2394406E-3,-2.1750894E-3,-1.3431886E-3,-1.782866E-3,-1.0934725E-3,-8.3778857E-4,-1.9152533E-3,-1.6851965E-3,-9.521462E-4,-1.6174553E-3,-1.3264962E-3,-1.1294766E-3,-7.3719036E-4,-1.5098144E-3,-1.0267341E-3,-9.400858E-4,-1.2658712E-3,-1.0983392E-3,-7.0653466E-4,-4.8230056E-4,3.427863E-4,-6.0811825E-4,-1.1534035E-4,-3.0773613E-4,4.9702096E-5,8.3299514E-5,7.126781E-4,1.1331176E-3,5.8972504E-4],"split_indices":[0,0,5,4,5,0,4,5,5,4,5,5,4,0,0,0,6,1,5,6,1,6,5,1,11,5,0,3,0,2,11,0,0,0,0,0,0,0,0,0,0,0,0,0,0,0,0,0,0,0,0,0,0,0,0,0,0,0,0,0,0],"split_type":[0,0,0,0,0,0,0,0,0,0,0,0,0,0,0,0,0,0,0,0,0,0,0,0,0,0,0,0,0,0,0,0,0,0,0,0,0,0,0,0,0,0,0,0,0,0,0,0,0,0,0,0,0,0,0,0,0,0,0,0,0],"sum_hessian":[3.514E3,2.433E3,1.081E3,1.286E3,1.147E3,9.59E2,1.22E2,3.17E2,9.69E2,7.7E2,3.77E2,6.33E2,3.26E2,8.3E1,3.9E1,1.67E2,1.5E2,7.12E2,2.57E2,4.49E2,3.21E2,3.29E2,4.8E1,4.01E2,2.32E2,2.5E2,7.6E1,3.1E1,5.2E1,1.8E1,2.1E1,3E0,1.47E2,6.88E2,2.4E1,2.38E2,1.9E1,3E0,4.46E2,3.11E2,1E1,1.54E2,1.75E2,3E1,1.8E1,3.4E2,6.1E1,1.19E2,1.13E2,1.43E2,1.07E2,6.7E1,9E0,3E1,1E0,4.4E1,8E0,1.7E1,1E0,1E1,1.1E1],"tree_param":{"num_deleted":"0","num_feature":"12","num_nodes":"61","size_leaf_vector":"0"}},{"base_weights":[-1.63005E-1,-1.938817E-1,-1.08673625E-1,-2.198806E-1,-1.766429E-1,-1.3198586E-1,-6.2013023E-2,-2.3260652E-1,-1.9854765E-1,-1.8958294E-1,-1.5289304E-1,-1.4504996E-1,-9.248207E-2,-8.399081E-2,4.499902E-3,-2.348827E-1,-1.5215719E-1,-2.0273021E-1,-1.2906578E-1,-2.0246366E-1,-1.7841826E-1,-1.5651308E-1,-8.860685E-2,-1.5027274E-1,-6.546333E-2,-1.17622785E-1,-7.565533E-2,-9.235016E-2,-2.2957634E-2,-1.9324377E-2,7.946494E-2,-2.5419068E-1,-2.245147E-1,-1.6382784E-1,-7.035298E-2,-2.1100503E-1,-1.7547505E-1,-2.0448571E-1,-1.2054889E-1,-1.7929676E-1,-9.407047E-2,-1.6537915E-1,-1.3719499E-1,-9.978586E-2,-4.8186086E-2,-1.5196924E-1,-9.066523E-2,-9.6556604E-2,-4.5764714E-2,-1.2278661E-1,-8.30332E-2,-7.769173E-2,-2.0281905E-2,-1.014579E-1,-5.8395937E-2,-3.3203244E-2,7.755369E-2,-3.100006E-2,1.8420242E-2,5.1505644E-2,1.1904924E-1],"categories":[],"categories_nodes":[],"categories_segments":[],"categories_sizes":[],"default_left":[true,true,true,true,true,true,true,true,true,true,true,true,true,true,true,true,true,true,false,true,true,true,true,true,true,true,true,true,true,true,true,false,false,false,false,false,false,false,false,false,false,false,false,false,false,false,false,false,false,false,false,false,false,false,false,false,false,false,false,false,false],"id":20,"left_children":[1,3,5,7,9,11,13,15,17,19,21,23,25,27,29,31,33,35,-1,37,39,41,43,45,47,49,51,53,55,57,59,-1,-1,-1,-1,-1,-1,-1,-1,-1,-1,-1,-1,-1,-1,-1,-1,-1,-1,-1,-1,-1,-1,-1,-1,-1,-1,-1,-1,-1,-1],"loss_changes":[5.8756027E0,9.6510315E-1,1.3798018E0,1.9516373E-1,3.8651657E-1,4.2525482E-1,6.245698E-1,6.5158844E-2,7.235241E-2,8.913422E-2,9.830189E-2,2.5494003E-1,8.1630945E-2,1.6165328E-1,1.9263631E-1,4.9827576E-2,5.6589544E-3,3.469181E-2,0E0,4.1107178E-2,1.8330574E-2,5.524063E-2,7.843912E-3,4.6592712E-2,2.0693377E-2,4.8083067E-3,1.3196051E-2,8.1282616E-2,4.3767035E-2,3.6707945E-2,2.2643775E-2,0E0,0E0,0E0,0E0,0E0,0E0,0E0,0E0,0E0,0E0,0E0,0E0,0E0,0E0,0E0,0E0,0E0,0E0,0E0,0E0,0E0,0E0,0E0,0E0,0E0,0E0,0E0,0E0,0E0,0E0],"parents":[2147483647,0,0,1,1,2,2,3,3,4,4,5,5,6,6,7,7,8,8,9,9,10,10,11,11,12,12,13,13,14,14,15,15,16,16,17,17,19,19,20,20,21,21,22,22,23,23,24,24,25,25,26,26,27,27,28,28,29,29,30,30],"right_children":[2,4,6,8,10,12,14,16,18,20,22,24,26,28,30,32,34,36,-1,38,40,42,44,46,48,50,52,54,56,58,60,-1,-1,-1,-1,-1,-1,-1,-1,-1,-1,-1,-1,-1,-1,-1,-1,-1,-1,-1,-1,-1,-1,-1,-1,-1,-1,-1,-1,-1,-1],"split_conditions":[4.9691278E-1,3.8775504E-1,5E-1,3.801673E-1,4.0292746E-1,4.9823067E-1,5.626508E-1,5.8333224E-1,5.7310605E-1,4.4057164E-1,5.841242E-1,6.0487044E-1,3.888889E-1,6.6692203E-1,7.222222E-1,3.0487543E-1,6.9689775E-1,2.9609632E-1,-1.2906578E-3,5.567229E-1,6.821737E-1,3.888889E-1,2.8696012E-1,3.75E-1,5.528095E-1,3.110465E-1,6.521925E-1,4.8455846E-1,7.8846514E-1,6.1111116E-1,5.9868103E-1,-2.5419067E-3,-2.2451468E-3,-1.6382784E-3,-7.0352975E-4,-2.1100503E-3,-1.7547504E-3,-2.044857E-3,-1.2054888E-3,-1.7929676E-3,-9.407047E-4,-1.6537915E-3,-1.3719499E-3,-9.978586E-4,-4.8186086E-4,-1.5196924E-3,-9.0665225E-4,-9.65566E-4,-4.5764714E-4,-1.227866E-3,-8.3033193E-4,-7.7691727E-4,-2.0281905E-4,-1.014579E-3,-5.8395934E-4,-3.3203245E-4,7.755369E-4,-3.1000059E-4,1.842024E-4,5.150564E-4,1.1904924E-3],"split_indices":[0,0,4,5,5,5,5,1,5,0,5,1,4,0,4,0,1,6,0,1,1,4,6,3,0,6,1,5,0,4,5,0,0,0,0,0,0,0,0,0,0,0,0,0,0,0,0,0,0,0,0,0,0,0,0,0,0,0,0,0,0],"split_type":[0,0,0,0,0,0,0,0,0,0,0,0,0,0,0,0,0,0,0,0,0,0,0,0,0,0,0,0,0,0,0,0,0,0,0,0,0,0,0,0,0,0,0,0,0,0,0,0,0,0,0,0,0,0,0,0,0,0,0,0,0],"sum_hessian":[3.514E3,2.239E3,1.275E3,8.88E2,1.351E3,8.49E2,4.26E2,5.5E2,3.38E2,8.7E2,4.81E2,6.36E2,2.13E2,3.2E2,1.06E2,5.33E2,1.7E1,3.17E2,2.1E1,3.96E2,4.74E2,4.54E2,2.7E1,5.96E2,4E1,8.3E1,1.3E2,2.81E2,3.9E1,8.1E1,2.5E1,1.78E2,3.55E2,1.4E1,3E0,2.38E2,7.9E1,3.85E2,1.1E1,4.68E2,6E0,3.06E2,1.48E2,2E1,7E0,5.78E2,1.8E1,1.4E1,2.6E1,7E1,1.3E1,1.25E2,5E0,2.2E2,6.1E1,3.6E1,3E0,6.2E1,1.9E1,1.6E1,9E0],"tree_param":{"num_deleted":"0","num_feature":"12","num_nodes":"61","size_leaf_vector":"0"}},{"base_weights":[-1.6138327E-1,-1.8838856E-1,-1.0048471E-1,-2.1504797E-1,-1.6967928E-1,-1.1224351E-1,-7.891696E-3,-2.2759178E-1,-1.9433291E-1,-1.8255423E-1,-1.4400442E-1,-1.3023984E-1,-8.078894E-2,-3.781862E-2,5.515214E-2,-2.4254279E-1,-2.130496E-1,-2.1844529E-1,-1.81993E-1,-1.9189541E-1,-1.6525409E-1,-1.4713582E-1,-7.484315E-2,-1.4222896E-1,-1.0884958E-1,-9.281732E-2,-3.8732227E-2,-5.8511253E-2,-2.4611399E-2,1.5037201E-2,8.7289944E-2,-2.4371156E-1,-4.6765924E-2,-2.1523464E-1,-1.3190432E-1,-5.8150947E-2,-2.1926902E-1,-1.8635352E-1,-1.1687506E-1,-1.9396535E-1,-1.452732E-1,-1.671821E-1,-9.846247E-2,-1.4947666E-1,-8.109079E-2,-4.8629E-2,-8.55821E-2,-1.4877936E-1,-1.02507226E-1,-9.307808E-2,-1.2449062E-1,-7.200316E-2,-1.0867154E-1,-4.8421763E-2,3.39367E-2,-5.9683364E-2,-1.1087909E-2,-2.8804466E-2,1.3035049E-2,8.003782E-3,7.081938E-2,7.3003024E-2,1.5343945E-1],"categories":[],"categories_nodes":[],"categories_segments":[],"categories_sizes":[],"default_left":[true,true,true,true,true,true,true,true,true,true,true,true,true,true,true,true,true,true,true,true,true,true,true,true,true,true,true,true,true,true,true,false,false,false,false,false,false,false,false,false,false,false,false,false,false,false,false,false,false,false,false,false,false,false,false,false,false,false,false,false,false,false,false],"id":21,"left_children":[1,3,5,7,9,11,13,15,17,19,21,23,25,27,29,31,33,35,37,39,41,43,45,47,49,51,53,55,57,59,61,-1,-1,-1,-1,-1,-1,-1,-1,-1,-1,-1,-1,-1,-1,-1,-1,-1,-1,-1,-1,-1,-1,-1,-1,-1,-1,-1,-1,-1,-1,-1,-1],"loss_changes":[5.7617874E0,1.177536E0,1.1771774E0,2.1561813E-1,4.480667E-1,5.3290176E-1,2.3415089E-1,8.247566E-2,7.450104E-2,1.2213516E-1,9.3808174E-2,1.4069653E-1,1.7447281E-1,2.151651E-2,5.025564E-2,5.6562424E-2,2.8524399E-2,3.754139E-3,5.2046776E-2,3.0883789E-2,2.7451515E-2,5.930519E-2,2.313003E-3,8.54435E-2,4.3422937E-2,8.226323E-2,5.7973534E-2,1.1169761E-3,8.741733E-3,6.8876273E-3,9.5900595E-3,0E0,0E0,0E0,0E0,0E0,0E0,0E0,0E0,0E0,0E0,0E0,0E0,0E0,0E0,0E0,0E0,0E0,0E0,0E0,0E0,0E0,0E0,0E0,0E0,0E0,0E0,0E0,0E0,0E0,0E0,0E0,0E0],"parents":[2147483647,0,0,1,1,2,2,3,3,4,4,5,5,6,6,7,7,8,8,9,9,10,10,11,11,12,12,13,13,14,14,15,15,16,16,17,17,18,18,19,19,20,20,21,21,22,22,23,23,24,24,25,25,26,26,27,27,28,28,29,29,30,30],"right_children":[2,4,6,8,10,12,14,16,18,20,22,24,26,28,30,32,34,36,38,40,42,44,46,48,50,52,54,56,58,60,62,-1,-1,-1,-1,-1,-1,-1,-1,-1,-1,-1,-1,-1,-1,-1,-1,-1,-1,-1,-1,-1,-1,-1,-1,-1,-1,-1,-1,-1,-1,-1,-1],"split_conditions":[5.120721E-1,3.9937747E-1,5.737494E-1,3.801673E-1,4.1724303E-1,5.814818E-1,6.1111116E-1,3.3834058E-1,2.777778E-1,3.888889E-1,5.9240794E-1,4.256876E-1,6.1111116E-1,5.568849E-1,6.553916E-1,6.9057286E-1,5.8333224E-1,1.8965518E-1,5.7310605E-1,5.307026E-1,5.9744334E-1,5.665008E-1,2.7155173E-1,4.6591446E-1,2.2844827E-1,8.333334E-1,7.380936E-1,3.75E-1,6.845484E-1,5E-1,5E-1,-2.4371156E-3,-4.6765924E-4,-2.1523463E-3,-1.3190431E-3,-5.8150943E-4,-2.1926903E-3,-1.8635351E-3,-1.1687506E-3,-1.9396534E-3,-1.4527319E-3,-1.671821E-3,-9.846247E-4,-1.4947666E-3,-8.109079E-4,-4.8629E-4,-8.5582095E-4,-1.4877936E-3,-1.0250722E-3,-9.307807E-4,-1.2449061E-3,-7.200316E-4,-1.0867154E-3,-4.8421763E-4,3.3936702E-4,-5.9683365E-4,-1.1087909E-4,-2.8804466E-4,1.3035048E-4,8.003781E-5,7.0819375E-4,7.3003024E-4,1.5343945E-3],"split_indices":[0,0,5,5,5,0,4,0,4,4,5,5,4,0,0,1,1,11,5,1,1,1,11,1,11,7,0,3,0,2,2,0,0,0,0,0,0,0,0,0,0,0,0,0,0,0,0,0,0,0,0,0,0,0,0,0,0,0,0,0,0,0,0],"split_type":[0,0,0,0,0,0,0,0,0,0,0,0,0,0,0,0,0,0,0,0,0,0,0,0,0,0,0,0,0,0,0,0,0,0,0,0,0,0,0,0,0,0,0,0,0,0,0,0,0,0,0,0,0,0,0,0,0,0,0,0,0,0,0],"sum_hessian":[3.514E3,2.433E3,1.081E3,9.99E2,1.434E3,9.59E2,1.22E2,6.16E2,3.83E2,9.51E2,4.83E2,6.08E2,3.51E2,8.3E1,3.9E1,2.96E2,3.2E2,1.24E2,2.59E2,6.11E2,3.4E2,4.61E2,2.2E1,3.86E2,2.22E2,2.72E2,7.9E1,3.1E1,5.2E1,1.8E1,2.1E1,2.94E2,2E0,3.1E2,1E1,1E0,1.23E2,2.41E2,1.8E1,5.82E2,2.9E1,3.29E2,1.1E1,4.44E2,1.7E1,8E0,1.4E1,3.29E2,5.7E1,1.14E2,1.08E2,1.2E2,1.52E2,7E1,9E0,3E1,1E0,4.7E1,5E0,1.7E1,1E0,1.9E1,2E0],"tree_param":{"num_deleted":"0","num_feature":"12","num_nodes":"63","size_leaf_vector":"0"}},{"base_weights":[-1.5977693E-1,-1.900569E-1,-1.0649565E-1,-2.1554515E-1,-1.7315666E-1,-1.2939903E-1,-6.0654044E-2,-2.280112E-1,-1.9464737E-1,-1.8584041E-1,-1.498772E-1,-1.4222774E-1,-9.0607926E-2,-8.21985E-2,4.5461683E-3,-2.3024146E-1,-1.4917973E-1,-1.9874445E-1,-1.2657854E-1,-1.9853756E-1,-1.7483702E-1,-1.5342812E-1,-8.682217E-2,-1.4737402E-1,-6.382394E-2,-1.1534214E-1,-7.405616E-2,-9.0405695E-2,-2.228281E-2,-1.8866785E-2,7.821217E-2,-2.6016852E-1,-2.2350663E-1,-1.6054589E-1,-6.926173E-2,-2.0691173E-1,-1.718604E-1,-2.0052157E-1,-1.1817348E-1,-1.7569834E-1,-9.215268E-2,-1.6218476E-1,-1.3435619E-1,-9.7764194E-2,-4.724656E-2,-1.490516E-1,-8.849514E-2,-9.4635084E-2,-4.434279E-2,-1.2043437E-1,-8.12785E-2,-7.607479E-2,-1.932244E-2,-9.935117E-2,-5.7061244E-2,-3.238331E-2,7.671751E-2,-3.0301766E-2,1.8096743E-2,5.0701022E-2,1.171599E-1],"categories":[],"categories_nodes":[],"categories_segments":[],"categories_sizes":[],"default_left":[true,true,true,true,true,true,true,true,true,true,true,true,true,true,true,true,true,true,false,true,true,true,true,true,true,true,true,true,true,true,true,false,false,false,false,false,false,false,false,false,false,false,false,false,false,false,false,false,false,false,false,false,false,false,false,false,false,false,false,false,false],"id":22,"left_children":[1,3,5,7,9,11,13,15,17,19,21,23,25,27,29,31,33,35,-1,37,39,41,43,45,47,49,51,53,55,57,59,-1,-1,-1,-1,-1,-1,-1,-1,-1,-1,-1,-1,-1,-1,-1,-1,-1,-1,-1,-1,-1,-1,-1,-1,-1,-1,-1,-1,-1,-1],"loss_changes":[5.6507034E0,9.2757416E-1,1.3318596E0,1.872139E-1,3.7135315E-1,4.101076E-1,6.001818E-1,6.25267E-2,6.9384575E-2,8.6977005E-2,9.460068E-2,2.4761581E-1,7.906878E-2,1.5583396E-1,1.8602267E-1,4.948044E-2,5.230814E-3,3.4262657E-2,0E0,3.960228E-2,1.76363E-2,5.4196358E-2,7.506028E-3,4.577732E-2,2.041331E-2,4.781842E-3,1.3003767E-2,7.844639E-2,4.2482473E-2,3.5207905E-2,2.1918789E-2,0E0,0E0,0E0,0E0,0E0,0E0,0E0,0E0,0E0,0E0,0E0,0E0,0E0,0E0,0E0,0E0,0E0,0E0,0E0,0E0,0E0,0E0,0E0,0E0,0E0,0E0,0E0,0E0,0E0,0E0],"parents":[2147483647,0,0,1,1,2,2,3,3,4,4,5,5,6,6,7,7,8,8,9,9,10,10,11,11,12,12,13,13,14,14,15,15,16,16,17,17,19,19,20,20,21,21,22,22,23,23,24,24,25,25,26,26,27,27,28,28,29,29,30,30],"right_children":[2,4,6,8,10,12,14,16,18,20,22,24,26,28,30,32,34,36,-1,38,40,42,44,46,48,50,52,54,56,58,60,-1,-1,-1,-1,-1,-1,-1,-1,-1,-1,-1,-1,-1,-1,-1,-1,-1,-1,-1,-1,-1,-1,-1,-1,-1,-1,-1,-1,-1,-1],"split_conditions":[4.9691278E-1,3.8775504E-1,5E-1,3.801673E-1,4.0292746E-1,4.9823067E-1,5.626508E-1,5.8333224E-1,5.7310605E-1,4.4057164E-1,5.841242E-1,6.0487044E-1,3.888889E-1,6.6692203E-1,7.222222E-1,2.7591777E-1,6.9689775E-1,2.9609632E-1,-1.2657854E-3,5.567229E-1,6.821737E-1,3.888889E-1,2.8696012E-1,3.75E-1,5.528095E-1,3.110465E-1,6.521925E-1,4.8455846E-1,7.8846514E-1,6.1111116E-1,5.9868103E-1,-2.6016852E-3,-2.2350661E-3,-1.6054588E-3,-6.9261726E-4,-2.0691173E-3,-1.7186039E-3,-2.0052157E-3,-1.1817347E-3,-1.7569833E-3,-9.2152675E-4,-1.6218475E-3,-1.3435618E-3,-9.776419E-4,-4.724656E-4,-1.490516E-3,-8.849514E-4,-9.463508E-4,-4.4342788E-4,-1.2043437E-3,-8.12785E-4,-7.607479E-4,-1.9322439E-4,-9.935116E-4,-5.7061244E-4,-3.238331E-4,7.671751E-4,-3.0301764E-4,1.8096743E-4,5.070102E-4,1.171599E-3],"split_indices":[0,0,4,5,5,5,5,1,5,0,5,1,4,0,4,0,1,6,0,1,1,4,6,3,0,6,1,5,0,4,5,0,0,0,0,0,0,0,0,0,0,0,0,0,0,0,0,0,0,0,0,0,0,0,0,0,0,0,0,0,0],"split_type":[0,0,0,0,0,0,0,0,0,0,0,0,0,0,0,0,0,0,0,0,0,0,0,0,0,0,0,0,0,0,0,0,0,0,0,0,0,0,0,0,0,0,0,0,0,0,0,0,0,0,0,0,0,0,0,0,0,0,0,0,0],"sum_hessian":[3.514E3,2.239E3,1.275E3,8.88E2,1.351E3,8.49E2,4.26E2,5.5E2,3.38E2,8.7E2,4.81E2,6.36E2,2.13E2,3.2E2,1.06E2,5.33E2,1.7E1,3.17E2,2.1E1,3.96E2,4.74E2,4.54E2,2.7E1,5.96E2,4E1,8.3E1,1.3E2,2.81E2,3.9E1,8.1E1,2.5E1,9.1E1,4.42E2,1.4E1,3E0,2.38E2,7.9E1,3.85E2,1.1E1,4.68E2,6E0,3.06E2,1.48E2,2E1,7E0,5.78E2,1.8E1,1.4E1,2.6E1,7E1,1.3E1,1.25E2,5E0,2.2E2,6.1E1,3.6E1,3E0,6.2E1,1.9E1,1.6E1,9E0],"tree_param":{"num_deleted":"0","num_feature":"12","num_nodes":"61","size_leaf_vector":"0"}},{"base_weights":[-1.5818734E-1,-1.8466853E-1,-9.847073E-2,-2.0349662E-1,-1.5919335E-1,-1.1000576E-1,-7.6407236E-3,-2.2667538E-1,-1.923762E-1,-1.7035557E-1,-1.3202366E-1,-1.2672362E-1,-7.725612E-2,-3.698422E-2,5.4171637E-2,-2.3010658E-1,-1.5955241E-1,-2.0417283E-1,-1.6771604E-1,-1.8021801E-1,-1.5699108E-1,-1.3831335E-1,-9.428676E-2,-1.384073E-1,-1.0602161E-1,-8.95265E-2,-3.625456E-2,-5.7412434E-2,-2.3952387E-2,1.4688228E-2,8.58086E-2,-2.3076405E-1,-6.11413E-2,-1.687511E-1,-8.900739E-2,-2.0700666E-1,-1.5398069E-1,-1.7086303E-1,-1.0664798E-1,-7.944571E-2,-1.8075897E-1,-1.5919669E-1,-9.2828535E-2,-1.401665E-1,-1.5398806E-2,-1.06320344E-1,-7.095724E-2,-1.4525495E-1,-9.851285E-2,-9.029631E-2,-1.2164454E-1,-1.0536577E-1,-6.7578524E-2,-4.599346E-2,3.35954E-2,-5.8577217E-2,-1.065211E-2,-2.8094795E-2,1.3178945E-2,7.6848203E-3,7.037479E-2,7.1644135E-2,1.5163545E-1],"categories":[],"categories_nodes":[],"categories_segments":[],"categories_sizes":[],"default_left":[true,true,true,true,true,true,true,true,true,true,true,true,true,true,true,true,true,true,true,true,true,true,true,true,true,true,true,true,true,true,true,false,false,false,false,false,false,false,false,false,false,false,false,false,false,false,false,false,false,false,false,false,false,false,false,false,false,false,false,false,false,false,false],"id":23,"left_children":[1,3,5,7,9,11,13,15,17,19,21,23,25,27,29,31,33,35,37,39,41,43,45,47,49,51,53,55,57,59,61,-1,-1,-1,-1,-1,-1,-1,-1,-1,-1,-1,-1,-1,-1,-1,-1,-1,-1,-1,-1,-1,-1,-1,-1,-1,-1,-1,-1,-1,-1,-1,-1],"loss_changes":[5.5403214E0,1.1350708E0,1.1328001E0,3.1622314E-1,2.9261017E-1,5.158129E-1,2.2509976E-1,6.6236496E-2,2.4211884E-1,6.8323135E-2,5.9826374E-2,1.3867474E-1,1.612693E-1,2.0987071E-2,4.870501E-2,3.2880783E-2,1.2030005E-3,5.8872223E-2,4.19302E-2,8.261681E-3,3.0365944E-2,5.7291508E-2,5.6504905E-3,9.551048E-2,4.625845E-2,8.013725E-2,5.392532E-2,1.1189282E-3,8.522358E-3,6.8691E-3,9.649038E-3,0E0,0E0,0E0,0E0,0E0,0E0,0E0,0E0,0E0,0E0,0E0,0E0,0E0,0E0,0E0,0E0,0E0,0E0,0E0,0E0,0E0,0E0,0E0,0E0,0E0,0E0,0E0,0E0,0E0,0E0,0E0,0E0],"parents":[2147483647,0,0,1,1,2,2,3,3,4,4,5,5,6,6,7,7,8,8,9,9,10,10,11,11,12,12,13,13,14,14,15,15,16,16,17,17,18,18,19,19,20,20,21,21,22,22,23,23,24,24,25,25,26,26,27,27,28,28,29,29,30,30],"right_children":[2,4,6,8,10,12,14,16,18,20,22,24,26,28,30,32,34,36,38,40,42,44,46,48,50,52,54,56,58,60,62,-1,-1,-1,-1,-1,-1,-1,-1,-1,-1,-1,-1,-1,-1,-1,-1,-1,-1,-1,-1,-1,-1,-1,-1,-1,-1,-1,-1,-1,-1,-1,-1],"split_conditions":[5.120721E-1,4.3305612E-1,5.737494E-1,3.3361995E-1,4.4884992E-1,5.8632135E-1,6.1111116E-1,5.513109E-1,4.1153288E-1,3.888889E-1,5.6940645E-1,4.256876E-1,6.1111116E-1,5.568849E-1,6.553916E-1,8.00283E-1,5.9683126E-1,4.901595E-1,5.841242E-1,8.596346E-2,5.6406415E-1,6.0623944E-1,5.920058E-1,4.6591446E-1,2.2844827E-1,4.3662536E-1,7.380936E-1,3.75E-1,6.845484E-1,5E-1,5E-1,-2.3076404E-3,-6.11413E-4,-1.687511E-3,-8.900739E-4,-2.0700665E-3,-1.5398068E-3,-1.7086302E-3,-1.0664798E-3,-7.944571E-4,-1.8075897E-3,-1.5919668E-3,-9.282853E-4,-1.401665E-3,-1.5398806E-4,-1.0632034E-3,-7.095724E-4,-1.4525495E-3,-9.851285E-4,-9.029631E-4,-1.2164454E-3,-1.0536576E-3,-6.7578524E-4,-4.5993458E-4,3.35954E-4,-5.8577216E-4,-1.06521096E-4,-2.8094795E-4,1.3178945E-4,7.68482E-5,7.0374785E-4,7.164413E-4,1.5163545E-3],"split_indices":[0,0,5,0,5,0,4,5,5,4,5,5,4,0,0,1,5,1,5,6,1,1,5,1,11,5,0,3,0,2,2,0,0,0,0,0,0,0,0,0,0,0,0,0,0,0,0,0,0,0,0,0,0,0,0,0,0,0,0,0,0,0,0],"split_type":[0,0,0,0,0,0,0,0,0,0,0,0,0,0,0,0,0,0,0,0,0,0,0,0,0,0,0,0,0,0,0,0,0,0,0,0,0,0,0,0,0,0,0,0,0,0,0,0,0,0,0,0,0,0,0,0,0,0,0,0,0,0,0],"sum_hessian":[3.514E3,2.433E3,1.081E3,1.395E3,1.038E3,9.59E2,1.22E2,4.46E2,9.49E2,7.32E2,3.06E2,6.33E2,3.26E2,8.3E1,3.9E1,4.22E2,2.4E1,6.37E2,3.12E2,4.14E2,3.18E2,2.6E2,4.6E1,4.01E2,2.32E2,2.5E2,7.6E1,3.1E1,5.2E1,1.8E1,2.1E1,4.2E2,2E0,2E1,4E0,6E2,3.7E1,2.95E2,1.7E1,3E0,4.11E2,3.06E2,1.2E1,2.56E2,4E0,2.8E1,1.8E1,3.4E2,6.1E1,1.19E2,1.13E2,1.43E2,1.07E2,6.7E1,9E0,3E1,1E0,4.7E1,5E0,1.7E1,1E0,1.9E1,2E0],"tree_param":{"num_deleted":"0","num_feature":"12","num_nodes":"63","size_leaf_vector":"0"}},{"base_weights":[-1.5661246E-1,-1.8630163E-1,-1.0437079E-1,-2.1132237E-1,-1.697116E-1,-1.2687702E-1,-5.9324715E-2,-2.2358342E-1,-1.9077025E-1,-1.8214902E-1,-1.4688441E-1,-1.3946822E-1,-8.880472E-2,-8.0444746E-2,4.5898254E-3,-2.2577748E-1,-1.4607167E-1,-1.9477703E-1,-1.2418291E-1,-1.9410206E-1,-1.7099707E-1,-1.5036023E-1,-8.515651E-2,-1.4454083E-1,-6.2204555E-2,-1.13151975E-1,-7.251484E-2,-8.850127E-2,-2.1635149E-2,-1.8418605E-2,7.697834E-2,-2.5531256E-1,-2.1913412E-1,-1.5725198E-1,-6.762756E-2,-2.1418723E-1,-1.8288021E-1,-1.9595836E-1,-1.15740865E-1,-1.7926265E-1,-1.5878241E-1,-1.5899353E-1,-1.3156302E-1,-9.595433E-2,-4.616768E-2,-1.5985844E-1,-1.3710912E-1,-9.271867E-2,-4.29484E-2,-1.1816832E-1,-7.962966E-2,-7.451652E-2,-1.839373E-2,-9.728251E-2,-5.577297E-2,-3.1593695E-2,7.589018E-2,-2.9617304E-2,1.777823E-2,4.9907643E-2,1.1530069E-1],"categories":[],"categories_nodes":[],"categories_segments":[],"categories_sizes":[],"default_left":[true,true,true,true,true,true,true,true,true,true,true,true,true,true,true,true,true,true,false,true,true,true,true,true,true,true,true,true,true,true,true,false,false,false,false,false,false,false,false,false,false,false,false,false,false,false,false,false,false,false,false,false,false,false,false,false,false,false,false,false,false],"id":24,"left_children":[1,3,5,7,9,11,13,15,17,19,21,23,25,27,29,31,33,35,-1,37,39,41,43,45,47,49,51,53,55,57,59,-1,-1,-1,-1,-1,-1,-1,-1,-1,-1,-1,-1,-1,-1,-1,-1,-1,-1,-1,-1,-1,-1,-1,-1,